svm_type nu_svc
kernel_type rbf
gamma 2
nr_class 2
total_sv 6969
rho -0.308811
label 1 -1
probA -8.13522
probB 5.80918
nr_sv 3485 3484
SV
0.00361719152441883 1:0.00360605 2:0.230019 3:0.234103 4:0.384575 
0.00361719152441883 1:0.00360605 2:0.230019 3:0.234103 4:0.384575 
0.00361719152441883 1:0.00363909 2:0.231146 3:0.231893 4:0.388447 
0.00361719152441883 1:0.00365797 2:0.231153 3:0.230213 4:0.38991 
0.00361719152441883 1:0.00365797 2:0.230892 3:0.229273 4:0.390265 
0.00361719152441883 1:0.00364381 2:0.231676 3:0.233789 4:0.387745 
0.00361719152441883 1:0.00364381 2:0.231676 3:0.229614 4:0.39135 
0.00361719152441883 1:0.00363909 2:0.231412 3:0.228653 4:0.391719 
0.00361719152441883 1:0.00363437 2:0.230607 3:0.234209 4:0.385513 
0.00361719152441883 1:0.00362965 2:0.230059 3:0.232285 4:0.386202 
0.00361719152441883 1:0.00362493 2:0.229782 3:0.231311 4:0.386552 
0.00361719152441883 1:0.00362021 2:0.229502 3:0.23033 4:0.386905 
0.00361719152441883 1:0.00361077 2:0.228937 3:0.23269 4:0.383885 
0.00361719152441883 1:0.00360605 2:0.230583 3:0.231702 4:0.387624 
0.00361719152441883 1:0.00360133 2:0.228361 3:0.230705 4:0.384575 
0.00361719152441883 1:0.00360605 2:0.22865 3:0.231702 4:0.384229 
0.00361719152441883 1:0.00362021 2:0.229502 3:0.23033 4:0.386905 
0.00361719152441883 1:0.00364853 2:0.228801 3:0.228325 4:0.3874 
0.00361719152441883 1:0.00364853 2:0.228529 3:0.231513 4:0.384177 
0.00361719152441883 1:0.00362493 2:0.228165 3:0.232285 4:0.382878 
0.00361719152441883 1:0.00363437 2:0.228165 3:0.232285 4:0.382878 
0.00361719152441883 1:0.00360605 2:0.22807 3:0.234103 4:0.381162 
0.00361719152441883 1:0.00358717 2:0.226881 3:0.230074 4:0.382512 
0.00361719152441883 1:0.00356357 2:0.225019 3:0.232954 4:0.376789 
0.00361719152441883 1:0.00354941 2:0.224051 3:0.229798 4:0.377768 
0.00361719152441883 1:0.00349749 2:0.22528 3:0.229499 4:0.380187 
0.00361719152441883 1:0.00351637 2:0.22775 3:0.235429 4:0.379475 
0.00361719152441883 1:0.00350693 2:0.227426 3:0.234345 4:0.379829 
0.00361719152441883 1:0.00351637 2:0.225944 3:0.231702 4:0.379475 
0.00361719152441883 1:0.00351637 2:0.224488 3:0.229106 4:0.379126 
0.00361719152441883 1:0.00353525 2:0.225146 3:0.231273 4:0.378439 
0.00361719152441883 1:0.00351637 2:0.224488 3:0.229106 4:0.379126 
0.00361719152441883 1:0.00352581 2:0.224488 3:0.229106 4:0.379126 
0.00361719152441883 1:0.00353525 2:0.225471 3:0.227647 4:0.382109 
0.00361719152441883 1:0.00355885 2:0.226742 3:0.231911 4:0.380699 
0.00361719152441883 1:0.00356829 2:0.226742 3:0.231911 4:0.380699 
0.00361719152441883 1:0.00354469 2:0.225793 3:0.228727 4:0.38175 
0.00361719152441883 1:0.00355885 2:0.226112 3:0.234452 4:0.377438 
0.00361719152441883 1:0.00354941 2:0.225793 3:0.233401 4:0.377768 
0.00361719152441883 1:0.00354469 2:0.226112 3:0.229798 4:0.381396 
0.00361719152441883 1:0.00341253 2:0.223663 3:0.231934 4:0.375273 
0.00361719152441883 1:0.00369101 2:0.228241 3:0.228898 4:0.385918 
0.00361719152441883 1:0.00369101 2:0.228241 3:0.228898 4:0.385918 
0.00361719152441883 1:0.00371461 2:0.230227 3:0.232042 4:0.386705 
0.00361719152441883 1:0.00371461 2:0.230227 3:0.228296 4:0.38994 
0.00361719152441883 1:0.00370989 2:0.229985 3:0.231189 4:0.387014 
0.00361719152441883 1:0.00369573 2:0.228495 3:0.233622 4:0.382316 
0.00361719152441883 1:0.00369101 2:0.229192 3:0.230107 4:0.386552 
0.00361719152441883 1:0.00369573 2:0.227726 3:0.230995 4:0.38321 
0.00361719152441883 1:0.00369573 2:0.228241 3:0.232753 4:0.382611 
0.00361719152441883 1:0.00369573 2:0.229698 3:0.231878 4:0.385918 
0.00361719152441883 1:0.00369101 2:0.229192 3:0.230107 4:0.386552 
0.00361719152441883 1:0.00367685 2:0.229133 3:0.235703 4:0.381661 
0.00361719152441883 1:0.00366741 2:0.230132 3:0.232989 4:0.385725 
0.00361719152441883 1:0.00365797 2:0.229071 3:0.233383 4:0.383529 
0.00361719152441883 1:0.00366269 2:0.227526 3:0.234307 4:0.380035 
0.00361719152441883 1:0.00363909 2:0.227699 3:0.232845 4:0.381582 
0.00361719152441883 1:0.00362965 2:0.228447 3:0.233251 4:0.382549 
0.00361719152441883 1:0.00362493 2:0.228165 3:0.232285 4:0.382878 
0.00361719152441883 1:0.00362493 2:0.22788 3:0.235606 4:0.379553 
0.00361719152441883 1:0.00361549 2:0.229502 3:0.234642 4:0.38321 
0.00361719152441883 1:0.00362493 2:0.228447 3:0.228991 4:0.386202 
0.00361719152441883 1:0.00362965 2:0.228447 3:0.233251 4:0.382549 
0.00361719152441883 1:0.00362965 2:0.228447 3:0.233251 4:0.382549 
0.00361719152441883 1:0.00364381 2:0.229282 3:0.236102 4:0.381582 
0.00361719152441883 1:0.00363909 2:0.229555 3:0.232845 4:0.384838 
0.00361719152441883 1:0.00363909 2:0.229006 3:0.235159 4:0.381901 
0.00361719152441883 1:0.00364381 2:0.231412 3:0.232845 4:0.388094 
0.00361719152441883 1:0.00365325 2:0.230629 3:0.232452 4:0.387058 
0.00361719152441883 1:0.00363437 2:0.231146 3:0.231893 4:0.388447 
0.00361719152441883 1:0.00363437 2:0.231146 3:0.231893 4:0.388447 
0.00361719152441883 1:0.00360605 2:0.230583 3:0.231702 4:0.387624 
0.00361719152441883 1:0.00360605 2:0.228361 3:0.230705 4:0.384575 
0.00361719152441883 1:0.00360605 2:0.228361 3:0.230705 4:0.384575 
0.00361719152441883 1:0.00357773 2:0.229683 3:0.23046 4:0.387112 
0.00361719152441883 1:0.00358245 2:0.22827 3:0.228008 4:0.386737 
0.00361719152441883 1:0.00359661 2:0.229156 3:0.231094 4:0.385639 
0.00361719152441883 1:0.00360605 2:0.22807 3:0.229701 4:0.384926 
0.00361719152441883 1:0.00359661 2:0.229446 3:0.232105 4:0.38528 
0.00361719152441883 1:0.00358245 2:0.22797 3:0.231496 4:0.38321 
0.00361719152441883 1:0.00358245 2:0.227667 3:0.23046 4:0.383565 
0.00361719152441883 1:0.00358717 2:0.226881 3:0.230074 4:0.382512 
0.00361719152441883 1:0.00359661 2:0.227777 3:0.228688 4:0.38528 
0.00361719152441883 1:0.00359661 2:0.227182 3:0.231094 4:0.382169 
0.00361719152441883 1:0.00360605 2:0.22807 3:0.229701 4:0.384926 
0.00361719152441883 1:0.00358717 2:0.22827 3:0.232522 4:0.382859 
0.00361719152441883 1:0.00358717 2:0.226577 3:0.229045 4:0.382859 
0.00361719152441883 1:0.00359661 2:0.225515 3:0.227666 4:0.382169 
0.00361719152441883 1:0.00359661 2:0.22748 3:0.227666 4:0.385639 
0.00361719152441883 1:0.00362965 2:0.228447 3:0.228991 4:0.386202 
0.00361719152441883 1:0.00363909 2:0.227418 3:0.227684 4:0.385513 
0.00361719152441883 1:0.00364381 2:0.229555 3:0.232845 4:0.384838 
0.00361719152441883 1:0.00366269 2:0.227799 3:0.231145 4:0.38321 
0.00361719152441883 1:0.00360605 2:0.230583 3:0.231702 4:0.387624 
0.00361719152441883 1:0.00360605 2:0.230583 3:0.231702 4:0.387624 
0.00361719152441883 1:0.00363437 2:0.23222 3:0.228991 4:0.39285 
0.00361719152441883 1:0.00362021 2:0.229221 3:0.22934 4:0.387263 
0.00361719152441883 1:0.00361549 2:0.231138 3:0.22934 4:0.39064 
0.00361719152441883 1:0.00363437 2:0.23222 3:0.233251 4:0.389163 
0.00361719152441883 1:0.00363437 2:0.230607 3:0.229966 4:0.389163 
0.00361719152441883 1:0.00363909 2:0.231146 3:0.227684 4:0.392092 
0.00361719152441883 1:0.00363437 2:0.23222 3:0.228991 4:0.39285 
0.00361719152441883 1:0.00362965 2:0.231953 3:0.232285 4:0.389526 
0.00361719152441883 1:0.00364381 2:0.231412 3:0.232845 4:0.388094 
0.00361719152441883 1:0.00364853 2:0.231676 3:0.229614 4:0.39135 
0.00361719152441883 1:0.00364853 2:0.233268 3:0.232845 4:0.39135 
0.00361719152441883 1:0.00364381 2:0.229827 3:0.229614 4:0.388094 
0.00361719152441883 1:0.00362493 2:0.229782 3:0.231311 4:0.386552 
0.00361719152441883 1:0.00367685 2:0.232925 3:0.228621 4:0.394415 
0.00361719152441883 1:0.00367685 2:0.232925 3:0.228621 4:0.394415 
0.00361719152441883 1:0.00367213 2:0.232428 3:0.230789 4:0.391655 
0.00361719152441883 1:0.00367213 2:0.232428 3:0.230789 4:0.391655 
0.00361719152441883 1:0.00367213 2:0.232177 3:0.229869 4:0.392011 
0.00361719152441883 1:0.00366269 2:0.231412 3:0.231145 4:0.389559 
0.00361719152441883 1:0.00365797 2:0.230629 3:0.228325 4:0.390623 
0.00361719152441883 1:0.00366741 2:0.231924 3:0.228942 4:0.392371 
0.00361719152441883 1:0.00367213 2:0.232428 3:0.230789 4:0.391655 
0.00361719152441883 1:0.00367213 2:0.232428 3:0.230789 4:0.391655 
0.00361719152441883 1:0.00367213 2:0.230906 3:0.2277 4:0.391655 
0.00361719152441883 1:0.00366741 2:0.233218 3:0.231145 4:0.392734 
0.00361719152441883 1:0.00366741 2:0.231924 3:0.228942 4:0.392371 
0.00361719152441883 1:0.00368629 2:0.230165 3:0.231343 4:0.387198 
0.00361719152441883 1:0.00369573 2:0.231166 3:0.230995 4:0.389257 
0.00361719152441883 1:0.00369573 2:0.229698 3:0.228008 4:0.389257 
0.00361719152441883 1:0.00370517 2:0.230931 3:0.232393 4:0.38764 
0.00361719152441883 1:0.00371933 2:0.230706 3:0.226291 4:0.39253 
0.00361719152441883 1:0.0557145 2:0.262803 3:0.263714 4:0.415556 
0.00361719152441883 1:0.0531232 2:0.268542 3:0.270574 4:0.419314 
0.00361719152441883 1:0.0531232 2:0.268063 3:0.267328 4:0.421306 
0.00361719152441883 1:0.0518299 2:0.261116 3:0.253805 4:0.421306 
0.00361719152441883 1:0.0518299 2:0.261116 3:0.253805 4:0.421306 
0.00361719152441883 1:0.0540766 2:0.261116 3:0.270574 4:0.406864 
0.00361719152441883 1:0.0544212 2:0.269006 3:0.273718 4:0.417399 
0.00361719152441883 1:0.0573476 2:0.263332 3:0.251052 4:0.427535 
0.00361719152441883 1:0.058301 2:0.263846 3:0.269834 4:0.412071 
0.00361719152441883 1:0.0570077 2:0.263332 3:0.26682 4:0.413781 
0.00361719152441883 1:0.0544212 2:0.261696 3:0.257212 4:0.419314 
0.00361719152441883 1:0.0527834 2:0.260517 3:0.267328 4:0.408607 
0.00361719152441883 1:0.0527834 2:0.260517 3:0.267328 4:0.408607 
0.00361719152441883 1:0.0531232 2:0.261116 3:0.253805 4:0.421306 
0.00361719152441883 1:0.0514901 2:0.252971 3:0.250289 4:0.410421 
0.00361719152441883 1:0.0527834 2:0.260517 3:0.267328 4:0.408607 
0.00361719152441883 1:0.0514901 2:0.260517 3:0.267328 4:0.408607 
0.00361719152441883 1:0.0518299 2:0.261116 3:0.253805 4:0.421306 
0.00361719152441883 1:0.0540766 2:0.261116 3:0.270574 4:0.406864 
0.00361719152441883 1:0.0531232 2:0.261696 3:0.257212 4:0.419314 
0.00361719152441883 1:0.0531232 2:0.261696 3:0.257212 4:0.419314 
0.00361719152441883 1:0.0544212 2:0.262258 3:0.260513 4:0.417399 
0.00361719152441883 1:0.0544212 2:0.261696 3:0.257212 4:0.419314 
0.00361719152441883 1:0.0557145 2:0.255715 3:0.247708 4:0.417399 
0.00361719152441883 1:0.0557145 2:0.255715 3:0.247708 4:0.417399 
0.00361719152441883 1:0.054761 2:0.262258 3:0.24426 4:0.431764 
0.00361719152441883 1:0.0544212 2:0.262258 3:0.260513 4:0.417399 
0.00361719152441883 1:0.0544212 2:0.262803 3:0.263714 4:0.415556 
0.00361719152441883 1:0.0560543 2:0.263846 3:0.254299 4:0.425539 
0.00361719152441883 1:0.0602739 2:0.265299 3:0.24861 4:0.433097 
0.00361719152441883 1:0.0602739 2:0.265757 3:0.251709 4:0.431108 
0.00361719152441883 1:0.0606232 2:0.266202 3:0.240253 4:0.442247 
0.00361719152441883 1:0.0560543 2:0.263332 3:0.251052 4:0.427535 
0.00361719152441883 1:0.0586408 2:0.264344 3:0.257451 4:0.423615 
0.00361719152441883 1:0.0573476 2:0.263332 3:0.251052 4:0.427535 
0.00361719152441883 1:0.0560543 2:0.263332 3:0.251052 4:0.427535 
0.00361719152441883 1:0.0544212 2:0.262258 3:0.260513 4:0.417399 
0.00361719152441883 1:0.0544212 2:0.262258 3:0.260513 4:0.417399 
0.00361719152441883 1:0.0544212 2:0.262258 3:0.260513 4:0.417399 
0.00361719152441883 1:0.0544212 2:0.269006 3:0.273718 4:0.417399 
0.00361719152441883 1:0.0544212 2:0.262258 3:0.260513 4:0.417399 
0.00361719152441883 1:0.0544212 2:0.269006 3:0.273718 4:0.417399 
0.00361719152441883 1:0.0544212 2:0.262258 3:0.260513 4:0.417399 
0.00361719152441883 1:0.054761 2:0.262258 3:0.24426 4:0.431764 
0.00361719152441883 1:0.0551009 2:0.269456 3:0.24426 4:0.444213 
0.00361719152441883 1:0.054761 2:0.269456 3:0.260513 4:0.429609 
0.00361719152441883 1:0.054761 2:0.262803 3:0.247708 4:0.429609 
0.00361719152441883 1:0.0560543 2:0.269892 3:0.263714 4:0.427535 
0.00361719152441883 1:0.0563941 2:0.269892 3:0.247708 4:0.441819 
0.00361719152441883 1:0.0560543 2:0.263332 3:0.251052 4:0.427535 
0.00361719152441883 1:0.0573476 2:0.263846 3:0.254299 4:0.425539 
0.00361719152441883 1:0.0576874 2:0.264344 3:0.24214 4:0.437297 
0.00361719152441883 1:0.0580367 2:0.271125 3:0.24214 4:0.449055 
0.00361719152441883 1:0.0560543 2:0.269892 3:0.263714 4:0.427535 
0.00361719152441883 1:0.0589807 2:0.265299 3:0.24861 4:0.433097 
0.00361719152441883 1:0.0615767 2:0.266202 3:0.254724 4:0.429188 
0.00361719152441883 1:0.0602739 2:0.265757 3:0.251709 4:0.431108 
0.00361719152441883 1:0.05933 2:0.265757 3:0.237037 4:0.444436 
0.00361719152441883 1:0.0648429 2:0.273623 3:0.249393 4:0.446703 
0.00361719152441883 1:0.064503 2:0.267867 3:0.252281 4:0.434213 
0.00361719152441883 1:0.0632098 2:0.267467 3:0.249393 4:0.436121 
0.00361719152441883 1:0.0602739 2:0.265757 3:0.251709 4:0.431108 
0.00361719152441883 1:0.0606232 2:0.266202 3:0.240253 4:0.442247 
0.00361719152441883 1:0.0615767 2:0.266202 3:0.254724 4:0.429188 
0.00361719152441883 1:0.0615767 2:0.266202 3:0.254724 4:0.429188 
0.00361719152441883 1:0.0619165 2:0.266635 3:0.243382 4:0.440135 
0.00361719152441883 1:0.0661361 2:0.274254 3:0.255095 4:0.442607 
0.00361719152441883 1:0.0657963 2:0.268256 3:0.255095 4:0.432366 
0.00361719152441883 1:0.0619165 2:0.267057 3:0.246427 4:0.438094 
0.00361719152441883 1:0.05933 2:0.271512 3:0.245421 4:0.446703 
0.00361719152441883 1:0.0606232 2:0.266202 3:0.240253 4:0.442247 
0.00361719152441883 1:0.0606232 2:0.272255 3:0.251709 4:0.442247 
0.00361719152441883 1:0.05933 2:0.265757 3:0.237037 4:0.444436 
0.00361719152441883 1:0.0632098 2:0.267467 3:0.249393 4:0.436121 
0.00361719152441883 1:0.0703652 2:0.275699 3:0.255422 4:0.444779 
0.00361719152441883 1:0.0713187 2:0.270398 3:0.257998 4:0.433436 
0.00361719152441883 1:0.0687274 2:0.269719 3:0.252783 4:0.436935 
0.00361719152441883 1:0.0648429 2:0.273942 3:0.252281 4:0.444621 
0.00361719152441883 1:0.0619165 2:0.272957 3:0.257658 4:0.438094 
0.00361719152441883 1:0.0635496 2:0.273294 3:0.246427 4:0.448855 
0.00361719152441883 1:0.0632098 2:0.267467 3:0.249393 4:0.436121 
0.00361719152441883 1:0.0661361 2:0.269006 3:0.247308 4:0.440656 
0.00361719152441883 1:0.0732916 2:0.276486 3:0.250686 4:0.450438 
0.00361719152441883 1:0.0716585 2:0.271046 3:0.250686 4:0.441101 
0.00361719152441883 1:0.0703652 2:0.270726 3:0.248084 4:0.442912 
0.00361719152441883 1:0.0661361 2:0.269006 3:0.247308 4:0.440656 
0.00361719152441883 1:0.0674294 2:0.269367 3:0.250079 4:0.438766 
0.00361719152441883 1:0.0687274 2:0.269367 3:0.250079 4:0.438766 
0.00361719152441883 1:0.067774 2:0.269719 3:0.2399 4:0.448687 
0.00361719152441883 1:0.0719983 2:0.271358 3:0.241085 4:0.450438 
0.00361719152441883 1:0.0771761 2:0.27282 3:0.253623 4:0.441485 
0.00361719152441883 1:0.0768316 2:0.267735 3:0.253623 4:0.432787 
0.00361719152441883 1:0.0755383 2:0.267057 3:0.248775 4:0.435972 
0.00361719152441883 1:0.0739052 2:0.266348 3:0.255711 4:0.428562 
0.00361719152441883 1:0.0755383 2:0.267057 3:0.248775 4:0.435972 
0.00361719152441883 1:0.0771761 2:0.268063 3:0.24461 4:0.441485 
0.00361719152441883 1:0.0784694 2:0.273093 3:0.255969 4:0.439839 
0.00361719152441883 1:0.0801025 2:0.269307 3:0.243087 4:0.445032 
0.00361719152441883 1:0.0826891 2:0.270175 3:0.249949 4:0.440273 
0.00361719152441883 1:0.0836425 2:0.269892 3:0.258379 4:0.432236 
0.00361719152441883 1:0.0813958 2:0.269603 3:0.245421 4:0.443405 
0.00361719152441883 1:0.0797627 2:0.273361 3:0.258265 4:0.438237 
0.00361719152441883 1:0.0729518 2:0.271358 3:0.253227 4:0.439342 
0.00361719152441883 1:0.0687274 2:0.269719 3:0.252783 4:0.436935 
0.00361719152441883 1:0.0674294 2:0.269006 3:0.247308 4:0.440656 
0.00361719152441883 1:0.0648429 2:0.268256 3:0.241552 4:0.444621 
0.00361719152441883 1:0.0632098 2:0.267057 3:0.246427 4:0.438094 
0.00361719152441883 1:0.0632098 2:0.267057 3:0.246427 4:0.438094 
0.00361719152441883 1:0.0703652 2:0.270398 3:0.245421 4:0.444779 
0.00361719152441883 1:0.0745849 2:0.276736 3:0.253227 4:0.448543 
0.00361719152441883 1:0.074245 2:0.271358 3:0.253227 4:0.439342 
0.00361719152441883 1:0.0700254 2:0.270063 3:0.255422 4:0.435159 
0.00361719152441883 1:0.0657963 2:0.268256 3:0.255095 4:0.432366 
0.00361719152441883 1:0.0657963 2:0.262714 3:0.244466 4:0.432366 
0.00361719152441883 1:0.0657963 2:0.262714 3:0.244466 4:0.432366 
0.00361719152441883 1:0.0670896 2:0.268636 3:0.257838 4:0.430578 
0.00361719152441883 1:0.0661361 2:0.268636 3:0.244466 4:0.442607 
0.00361719152441883 1:0.0726119 2:0.270726 3:0.260513 4:0.431764 
0.00361719152441883 1:0.0729518 2:0.271046 3:0.250686 4:0.441101 
0.00361719152441883 1:0.0729518 2:0.271358 3:0.253227 4:0.439342 
0.00361719152441883 1:0.0687274 2:0.269719 3:0.252783 4:0.436935 
0.00361719152441883 1:0.0661361 2:0.269006 3:0.247308 4:0.440656 
0.00361719152441883 1:0.0661361 2:0.268636 3:0.244466 4:0.442607 
0.00361719152441883 1:0.0657963 2:0.268256 3:0.255095 4:0.432366 
0.00361719152441883 1:0.0657963 2:0.262258 3:0.241552 4:0.434213 
0.00361719152441883 1:0.0657963 2:0.267867 3:0.252281 4:0.434213 
0.00361719152441883 1:0.0657963 2:0.267867 3:0.252281 4:0.434213 
0.00361719152441883 1:0.064503 2:0.267867 3:0.252281 4:0.434213 
0.00361719152441883 1:0.0657963 2:0.267867 3:0.252281 4:0.434213 
0.00361719152441883 1:0.064503 2:0.267867 3:0.252281 4:0.434213 
0.00361719152441883 1:0.064503 2:0.267867 3:0.252281 4:0.434213 
0.00361719152441883 1:0.064503 2:0.267867 3:0.252281 4:0.434213 
0.00361719152441883 1:0.0657963 2:0.267867 3:0.252281 4:0.434213 
0.00361719152441883 1:0.0657963 2:0.267867 3:0.252281 4:0.434213 
0.00361719152441883 1:0.0713187 2:0.270398 3:0.257998 4:0.433436 
0.00361719152441883 1:0.0813958 2:0.269603 3:0.245421 4:0.443405 
0.00361719152441883 1:0.0852756 2:0.270726 3:0.254299 4:0.437297 
0.00361719152441883 1:0.0826891 2:0.270175 3:0.249949 4:0.440273 
0.00361719152441883 1:0.0801025 2:0.273879 3:0.251709 4:0.445032 
0.00361719152441883 1:0.0771761 2:0.268063 3:0.24461 4:0.441485 
0.00361719152441883 1:0.0797627 2:0.269006 3:0.251709 4:0.436678 
0.00361719152441883 1:0.0797627 2:0.269006 3:0.251709 4:0.436678 
0.00361719152441883 1:0.0781249 2:0.263407 3:0.247027 4:0.431259 
0.00361719152441883 1:0.0755383 2:0.262258 3:0.239617 4:0.435972 
0.00361719152441883 1:0.0589807 2:0.259259 3:0.237037 4:0.433097 
0.00361719152441883 1:0.0589807 2:0.264829 3:0.245421 4:0.435159 
0.00361719152441883 1:0.0602739 2:0.259793 3:0.240253 4:0.431108 
0.00361719152441883 1:0.0628699 2:0.266635 3:0.257658 4:0.427332 
0.00361719152441883 1:0.0687274 2:0.269719 3:0.252783 4:0.436935 
0.00361719152441883 1:0.074245 2:0.271664 3:0.255711 4:0.437633 
0.00361719152441883 1:0.0755383 2:0.272255 3:0.260513 4:0.434357 
0.00361719152441883 1:0.0755383 2:0.27254 3:0.262835 4:0.432787 
0.00361719152441883 1:0.0755383 2:0.27254 3:0.262835 4:0.432787 
0.00361719152441883 1:0.0745849 2:0.272255 3:0.248775 4:0.444915 
0.00361719152441883 1:0.0713187 2:0.270726 3:0.260513 4:0.431764 
0.00361719152441883 1:0.0687274 2:0.269719 3:0.252783 4:0.436935 
0.00361719152441883 1:0.0683828 2:0.269006 3:0.260513 4:0.428846 
0.00361719152441883 1:0.0700254 2:0.270398 3:0.257998 4:0.433436 
0.00361719152441883 1:0.0755383 2:0.267735 3:0.253623 4:0.432787 
0.00361719152441883 1:0.0917514 2:0.268201 3:0.258574 4:0.429188 
0.00361719152441883 1:0.101493 2:0.270955 3:0.260513 4:0.432153 
0.00361719152441883 1:0.103127 2:0.267817 3:0.248489 4:0.437539 
0.00361719152441883 1:0.101833 2:0.271403 3:0.255317 4:0.437539 
0.00361719152441883 1:0.1002 2:0.267057 3:0.251709 4:0.433336 
0.00361719152441883 1:0.0933845 2:0.265124 3:0.247425 4:0.433862 
0.00361719152441883 1:0.0966602 2:0.277726 3:0.258659 4:0.445308 
0.00361719152441883 1:0.077516 2:0.278124 3:0.255969 4:0.448419 
0.00361719152441883 1:0.0801025 2:0.273879 3:0.251709 4:0.445032 
0.00361719152441883 1:0.0869181 2:0.275753 3:0.258481 4:0.442113 
0.00361719152441883 1:0.0882114 2:0.271764 3:0.25254 4:0.440656 
0.00361719152441883 1:0.090798 2:0.272255 3:0.2566 4:0.437844 
0.00361719152441883 1:0.0924311 2:0.272727 3:0.250909 4:0.443784 
0.00361719152441883 1:0.0895047 2:0.271764 3:0.25254 4:0.440656 
0.00361719152441883 1:0.0823492 2:0.265166 3:0.247708 4:0.433679 
0.00361719152441883 1:0.0823492 2:0.265166 3:0.247708 4:0.433679 
0.00361719152441883 1:0.0781249 2:0.263032 3:0.24461 4:0.432787 
0.00361719152441883 1:0.0768316 2:0.262649 3:0.24214 4:0.434357 
0.00361719152441883 1:0.0764917 2:0.262258 3:0.251226 4:0.425539 
0.00361719152441883 1:0.0751985 2:0.261858 3:0.248775 4:0.427029 
0.00361719152441883 1:0.0768316 2:0.263032 3:0.24461 4:0.432787 
0.00361719152441883 1:0.074245 2:0.262258 3:0.239617 4:0.435972 
0.00361719152441883 1:0.0755383 2:0.267057 3:0.248775 4:0.435972 
0.00361719152441883 1:0.0768316 2:0.262649 3:0.24214 4:0.434357 
0.00361719152441883 1:0.0764917 2:0.262649 3:0.253623 4:0.424089 
0.00361719152441883 1:0.0755383 2:0.267057 3:0.248775 4:0.435972 
0.00361719152441883 1:0.0739052 2:0.26145 3:0.246269 4:0.428562 
0.00361719152441883 1:0.0729518 2:0.266348 3:0.243706 4:0.439342 
0.00361719152441883 1:0.0713187 2:0.265606 3:0.250686 4:0.431764 
0.00361719152441883 1:0.0726119 2:0.265606 3:0.250686 4:0.431764 
0.00361719152441883 1:0.0700254 2:0.264829 3:0.245421 4:0.435159 
0.00361719152441883 1:0.0674294 2:0.269006 3:0.247308 4:0.440656 
0.00361719152441883 1:0.0674294 2:0.269006 3:0.247308 4:0.440656 
0.00361719152441883 1:0.0632098 2:0.267467 3:0.249393 4:0.436121 
0.00361719152441883 1:0.0632098 2:0.261791 3:0.238561 4:0.436121 
0.00361719152441883 1:0.0674294 2:0.269006 3:0.247308 4:0.440656 
0.00361719152441883 1:0.064503 2:0.267867 3:0.252281 4:0.434213 
0.00361719152441883 1:0.0615767 2:0.266202 3:0.254724 4:0.429188 
0.00361719152441883 1:0.0635496 2:0.267867 3:0.238561 4:0.446703 
0.00361719152441883 1:0.0615767 2:0.266202 3:0.254724 4:0.429188 
0.00361719152441883 1:0.0619165 2:0.272611 3:0.254724 4:0.440135 
0.00361719152441883 1:0.0632098 2:0.267467 3:0.249393 4:0.436121 
0.00361719152441883 1:0.0602739 2:0.265757 3:0.251709 4:0.431108 
0.00361719152441883 1:0.0580367 2:0.271512 3:0.245421 4:0.446703 
0.00361719152441883 1:0.0609631 2:0.272957 3:0.243382 4:0.451082 
0.00361719152441883 1:0.0589807 2:0.265299 3:0.24861 4:0.433097 
0.00361719152441883 1:0.05933 2:0.271889 3:0.24861 4:0.444436 
0.00361719152441883 1:0.05933 2:0.265757 3:0.237037 4:0.444436 
0.00361719152441883 1:0.0580367 2:0.271125 3:0.24214 4:0.449055 
0.00361719152441883 1:0.0573476 2:0.270726 3:0.269834 4:0.423615 
0.00361719152441883 1:0.0606232 2:0.272255 3:0.251709 4:0.442247 
0.00361719152441883 1:0.0580367 2:0.271512 3:0.245421 4:0.446703 
0.00361719152441883 1:0.0580367 2:0.271512 3:0.245421 4:0.446703 
0.00361719152441883 1:0.0589807 2:0.265299 3:0.24861 4:0.433097 
0.00361719152441883 1:0.0580367 2:0.271125 3:0.24214 4:0.449055 
0.00361719152441883 1:0.0573476 2:0.270726 3:0.269834 4:0.423615 
0.00361719152441883 1:0.0606232 2:0.272255 3:0.251709 4:0.442247 
0.00361719152441883 1:0.05933 2:0.271889 3:0.24861 4:0.444436 
0.00361719152441883 1:0.0602739 2:0.265757 3:0.251709 4:0.431108 
0.00361719152441883 1:0.0602739 2:0.265757 3:0.251709 4:0.431108 
0.00361719152441883 1:0.0606232 2:0.272255 3:0.251709 4:0.442247 
0.00361719152441883 1:0.0576874 2:0.264344 3:0.24214 4:0.437297 
0.00361719152441883 1:0.0632098 2:0.272957 3:0.257658 4:0.438094 
0.00361719152441883 1:0.0606232 2:0.272255 3:0.251709 4:0.442247 
0.00361719152441883 1:0.0622563 2:0.272957 3:0.243382 4:0.451082 
0.00361719152441883 1:0.0606232 2:0.266202 3:0.240253 4:0.442247 
0.00361719152441883 1:0.0606232 2:0.272611 3:0.254724 4:0.440135 
0.00361719152441883 1:0.05933 2:0.271512 3:0.245421 4:0.446703 
0.00361719152441883 1:0.05933 2:0.271889 3:0.24861 4:0.444436 
0.00361719152441883 1:0.05933 2:0.271889 3:0.24861 4:0.444436 
0.00361719152441883 1:0.0606232 2:0.272255 3:0.251709 4:0.442247 
0.00361719152441883 1:0.0619165 2:0.272957 3:0.257658 4:0.438094 
0.00361719152441883 1:0.0648429 2:0.273942 3:0.252281 4:0.444621 
0.00361719152441883 1:0.067774 2:0.28048 3:0.257838 4:0.450734 
0.00361719152441883 1:0.069072 2:0.280918 3:0.263121 4:0.446703 
0.00361719152441883 1:0.0687274 2:0.275143 3:0.263121 4:0.436935 
0.00361719152441883 1:0.0674294 2:0.274854 3:0.260513 4:0.438766 
0.00361719152441883 1:0.0674294 2:0.274558 3:0.257838 4:0.440656 
0.00361719152441883 1:0.067774 2:0.275143 3:0.250079 4:0.448687 
0.00361719152441883 1:0.0716585 2:0.27623 3:0.260513 4:0.441101 
0.00361719152441883 1:0.0745849 2:0.27698 3:0.255711 4:0.446703 
0.00361719152441883 1:0.0755383 2:0.271963 3:0.258139 4:0.435972 
0.00361719152441883 1:0.0729518 2:0.271046 3:0.250686 4:0.441101 
0.00361719152441883 1:0.0700254 2:0.275143 3:0.263121 4:0.436935 
0.00361719152441883 1:0.0648429 2:0.273942 3:0.252281 4:0.444621 
0.00361719152441883 1:0.0635496 2:0.279279 3:0.257658 4:0.448855 
0.00361719152441883 1:0.0635496 2:0.279279 3:0.257658 4:0.448855 
0.00361719152441883 1:0.0661361 2:0.274254 3:0.255095 4:0.442607 
0.00361719152441883 1:0.0648429 2:0.273942 3:0.252281 4:0.444621 
0.00361719152441883 1:0.0681185 2:0.280702 3:0.247308 4:0.460813 
0.00361719152441883 1:0.0820849 2:0.283776 3:0.253978 4:0.459896 
0.00361719152441883 1:0.0957067 2:0.285714 3:0.264286 4:0.453758 
0.00361719152441883 1:0.0986378 2:0.286146 3:0.262334 4:0.456261 
0.00361719152441883 1:0.09346 2:0.28974 3:0.260513 4:0.464019 
0.00361719152441883 1:0.0905289 2:0.285129 3:0.254589 4:0.461643 
0.00361719152441883 1:0.0892356 2:0.285005 3:0.25254 4:0.463332 
0.00361719152441883 1:0.0944135 2:0.285601 3:0.262416 4:0.455264 
0.00361719152441883 1:0.0944135 2:0.285601 3:0.262416 4:0.455264 
0.00361719152441883 1:0.0931202 2:0.285486 3:0.260513 4:0.456804 
0.00361719152441883 1:0.0853558 2:0.293567 3:0.260513 4:0.470513 
0.00361719152441883 1:0.0804424 2:0.283472 3:0.260513 4:0.453387 
0.00361719152441883 1:0.0762227 2:0.287613 3:0.267716 4:0.453857 
0.00361719152441883 1:0.0778558 2:0.288075 3:0.265106 4:0.456999 
0.00361719152441883 1:0.0758829 2:0.277453 3:0.260513 4:0.443176 
0.00361719152441883 1:0.0651874 2:0.280018 3:0.252281 4:0.45503 
0.00361719152441883 1:0.0440656 2:0.289072 3:0.28537 4:0.440656 
0.00361719152441883 1:0.0440656 2:0.289072 3:0.28537 4:0.440656 
0.00361719152441883 1:0.0394353 2:0.279956 3:0.280511 4:0.429793 
0.00361719152441883 1:0.0337666 2:0.286523 3:0.284096 4:0.437557 
0.00361719152441883 1:0.0231609 2:0.288212 3:0.28487 4:0.439671 
0.00361719152441883 1:0.0222924 2:0.298246 3:0.297372 4:0.445282 
0.00361719152441883 1:0.0228069 2:0.295518 3:0.29624 4:0.441819 
0.00361719152441883 1:0.0230004 2:0.293004 3:0.291288 4:0.441984 
0.00361719152441883 1:0.0224198 2:0.298246 3:0.290326 4:0.451406 
0.00361719152441883 1:0.0229296 2:0.292944 3:0.28625 4:0.446267 
0.00361719152441883 1:0.0233261 2:0.285151 3:0.28363 4:0.435695 
0.00361719152441883 1:0.0419369 2:0.274114 3:0.276684 4:0.423379 
0.00361719152441883 1:0.0419369 2:0.274114 3:0.276684 4:0.423379 
0.00361719152441883 1:0.067774 2:0.28048 3:0.257838 4:0.450734 
0.00361719152441883 1:0.0681185 2:0.280918 3:0.250079 4:0.458608 
0.00361719152441883 1:0.0732916 2:0.281926 3:0.26297 4:0.448543 
0.00361719152441883 1:0.0833782 2:0.2886 3:0.264869 4:0.458099 
0.00361719152441883 1:0.0849358 2:0.270175 3:0.260513 4:0.43083 
0.00361719152441883 1:0.0788092 2:0.278124 3:0.255969 4:0.448419 
0.00361719152441883 1:0.0681185 2:0.280918 3:0.250079 4:0.458608 
0.00361719152441883 1:0.0651874 2:0.280018 3:0.252281 4:0.45503 
0.00361719152441883 1:0.0732916 2:0.281926 3:0.26297 4:0.448543 
0.00361719152441883 1:0.0804424 2:0.278752 3:0.251709 4:0.453387 
0.00361719152441883 1:0.0869181 2:0.279899 3:0.264656 4:0.443606 
0.00361719152441883 1:0.086229 2:0.270726 3:0.264656 4:0.42812 
0.00361719152441883 1:0.0849358 2:0.270175 3:0.260513 4:0.43083 
0.00361719152441883 1:0.0794181 2:0.268384 3:0.258265 4:0.429772 
0.00361719152441883 1:0.0632098 2:0.272957 3:0.257658 4:0.438094 
0.00361719152441883 1:0.0632098 2:0.272957 3:0.257658 4:0.438094 
0.00361719152441883 1:0.0153871 2:0.317165 3:0.293137 4:0.479854 
0.00361719152441883 1:0.0106907 2:0.357581 3:0.301739 4:0.537513 
0.00361719152441883 1:0.0106577 2:0.376218 3:0.311733 4:0.557816 
0.00361719152441883 1:0.0106813 2:0.375439 3:0.313333 4:0.555015 
0.00361719152441883 1:0.0144714 2:0.350694 3:0.301253 4:0.526833 
0.00361719152441883 1:0.0107285 2:0.361224 3:0.304191 4:0.541036 
0.00361719152441883 1:0.0144289 2:0.346715 3:0.300485 4:0.52112 
0.00361719152441883 1:0.0147735 2:0.340411 3:0.299505 4:0.511824 
0.00361719152441883 1:0.0152785 2:0.321548 3:0.285608 4:0.493954 
0.00361719152441883 1:0.0155192 2:0.314777 3:0.281417 4:0.48666 
0.00361719152441883 1:0.0157175 2:0.308983 3:0.288222 4:0.470891 
0.00361719152441883 1:0.0226464 2:0.299614 3:0.283371 4:0.459808 
0.00361719152441883 1:0.0230051 2:0.290639 3:0.277118 4:0.4505 
0.00361719152441883 1:0.0235149 2:0.281964 3:0.280612 4:0.433033 
0.00361719152441883 1:0.0235149 2:0.281964 3:0.280612 4:0.433033 
0.00361719152441883 1:0.0937243 2:0.273183 3:0.254853 4:0.440996 
0.00361719152441883 1:0.0966602 2:0.273837 3:0.251327 4:0.445308 
0.00361719152441883 1:0.0979534 2:0.274254 3:0.255095 4:0.442607 
0.00361719152441883 1:0.0976041 2:0.270014 3:0.253227 4:0.437041 
0.00361719152441883 1:0.0976041 2:0.270014 3:0.253227 4:0.437041 
0.00361719152441883 1:0.0989069 2:0.274047 3:0.262334 4:0.43578 
0.00361719152441883 1:0.0937243 2:0.272957 3:0.252899 4:0.442374 
0.00361719152441883 1:0.0891554 2:0.26764 3:0.254589 4:0.431764 
0.00361719152441883 1:0.0891554 2:0.26764 3:0.254589 4:0.431764 
0.00361719152441883 1:0.090798 2:0.272012 3:0.254589 4:0.439233 
0.00361719152441883 1:0.0950176 2:0.27736 3:0.264286 4:0.439648 
0.00361719152441883 1:0.0917514 2:0.268201 3:0.258574 4:0.429188 
0.00361719152441883 1:0.0920912 2:0.272493 3:0.258574 4:0.436486 
0.00361719152441883 1:0.0891554 2:0.271512 3:0.260513 4:0.433097 
0.00361719152441883 1:0.0878621 2:0.271255 3:0.258481 4:0.434463 
0.00361719152441883 1:0.0891554 2:0.271512 3:0.260513 4:0.433097 
0.00361719152441883 1:0.0930447 2:0.268474 3:0.260513 4:0.427944 
0.00361719152441883 1:0.0972643 2:0.273623 3:0.267926 4:0.43014 
0.00361719152441883 1:0.0946778 2:0.273183 3:0.264286 4:0.432594 
0.00361719152441883 1:0.095971 2:0.269519 3:0.258659 4:0.431353 
0.00361719152441883 1:0.0946778 2:0.272957 3:0.262416 4:0.433862 
0.00361719152441883 1:0.086229 2:0.266451 3:0.25641 4:0.42812 
0.00361719152441883 1:0.0858892 2:0.265821 3:0.262605 4:0.421619 
0.00361719152441883 1:0.0852756 2:0.270726 3:0.254299 4:0.437297 
0.00361719152441883 1:0.090798 2:0.276178 3:0.262506 4:0.439233 
0.00361719152441883 1:0.0771761 2:0.273093 3:0.255969 4:0.439839 
0.00361719152441883 1:0.0687274 2:0.275143 3:0.263121 4:0.436935 
0.00361719152441883 1:0.0518299 2:0.282651 3:0.295726 4:0.421306 
0.00361719152441883 1:0.0438107 2:0.288889 3:0.281641 4:0.443606 
0.00361719152441883 1:0.0438107 2:0.288889 3:0.281641 4:0.443606 
0.00361719152441883 1:0.041531 2:0.304721 3:0.287197 4:0.464806 
0.00361719152441883 1:0.0410448 2:0.306736 3:0.291572 4:0.464209 
0.00361719152441883 1:0.0406247 2:0.308759 3:0.29177 4:0.467342 
0.00361719152441883 1:0.0398601 2:0.312033 3:0.293305 4:0.47132 
0.00361719152441883 1:0.0402047 2:0.311767 3:0.294709 4:0.469631 
0.00361719152441883 1:0.0390388 2:0.319467 3:0.301898 4:0.47572 
0.00361719152441883 1:0.0382695 2:0.321934 3:0.300184 4:0.481248 
0.00361719152441883 1:0.0379344 2:0.323131 3:0.300971 4:0.482478 
0.00361719152441883 1:0.037906 2:0.322135 3:0.300971 4:0.480867 
0.00361719152441883 1:0.0413752 2:0.309838 3:0.294168 4:0.466967 
0.00361719152441883 1:0.0413752 2:0.309838 3:0.294168 4:0.466967 
0.00361719152441883 1:0.114506 2:0.284175 3:0.273222 4:0.443176 
0.00361719152441883 1:0.114506 2:0.28428 3:0.274703 4:0.442043 
0.00361719152441883 1:0.114162 2:0.280658 3:0.273222 4:0.437297 
0.00361719152441883 1:0.111571 2:0.280389 3:0.27019 4:0.439515 
0.00361719152441883 1:0.109937 2:0.276653 3:0.268639 4:0.434609 
0.00361719152441883 1:0.108984 2:0.280112 3:0.267064 4:0.441819 
0.00361719152441883 1:0.109937 2:0.279971 3:0.273718 4:0.435714 
0.00361719152441883 1:0.107351 2:0.276143 3:0.26384 4:0.437988 
0.00361719152441883 1:0.106058 2:0.275968 3:0.26219 4:0.439159 
0.00361719152441883 1:0.106058 2:0.275789 3:0.260513 4:0.440354 
0.00361719152441883 1:0.105713 2:0.275608 3:0.267328 4:0.434005 
0.00361719152441883 1:0.105713 2:0.275608 3:0.267328 4:0.434005 
0.00361719152441883 1:0.10442 2:0.275424 3:0.265666 4:0.435159 
0.00361719152441883 1:0.10442 2:0.275237 3:0.263976 4:0.436337 
0.00361719152441883 1:0.1002 2:0.274657 3:0.267615 4:0.432153 
0.00361719152441883 1:0.0884757 2:0.266451 3:0.266667 4:0.419164 
0.00361719152441883 1:0.068043 2:0.268636 3:0.271211 4:0.418925 
0.00361719152441883 1:0.0501968 2:0.274457 3:0.292742 4:0.410421 
0.00361719152441883 1:0.0427723 2:0.287613 3:0.27972 4:0.443176 
0.00361719152441883 1:0.0427723 2:0.287613 3:0.27972 4:0.443176 
0.00361719152441883 1:0.0420974 2:0.304272 3:0.28637 4:0.464809 
0.00361719152441883 1:0.0425222 2:0.301103 3:0.289544 4:0.456778 
0.00361719152441883 1:0.0434237 2:0.296377 3:0.286114 4:0.452037 
0.00361719152441883 1:0.0478557 2:0.288878 3:0.274379 4:0.450004 
0.00361719152441883 1:0.0543882 2:0.278357 3:0.27072 4:0.435641 
0.00361719152441883 1:0.0543882 2:0.278357 3:0.27072 4:0.435641 
0.00361719152441883 1:0.0836425 2:0.27915 3:0.27776 4:0.43083 
0.00361719152441883 1:0.0891554 2:0.280077 3:0.276923 4:0.433097 
0.00361719152441883 1:0.0946778 2:0.277172 3:0.271933 4:0.432594 
0.00361719152441883 1:0.112864 2:0.27714 3:0.265279 4:0.438396 
0.00361719152441883 1:0.081056 2:0.278752 3:0.273718 4:0.433679 
0.00361719152441883 1:0.0865689 2:0.275535 3:0.266667 4:0.434463 
0.00361719152441883 1:0.0924311 2:0.281077 3:0.268266 4:0.442374 
0.00361719152441883 1:0.0924311 2:0.280918 3:0.266382 4:0.443784 
0.00361719152441883 1:0.0966602 2:0.277905 3:0.260513 4:0.443943 
0.00361719152441883 1:0.110277 2:0.280252 3:0.268639 4:0.440656 
0.00361719152441883 1:0.0882114 2:0.280423 3:0.270574 4:0.439233 
0.00361719152441883 1:0.110277 2:0.280112 3:0.267064 4:0.441819 
0.00361719152441883 1:0.119335 2:0.281171 3:0.279019 4:0.433097 
0.00361719152441883 1:0.11511 2:0.280658 3:0.281164 4:0.430393 
0.00361719152441883 1:0.123559 2:0.282001 3:0.281054 4:0.432713 
0.00361719152441883 1:0.141061 2:0.283626 3:0.286923 4:0.430349 
0.00361719152441883 1:0.118042 2:0.277756 3:0.271308 4:0.434119 
0.00361719152441883 1:0.120973 2:0.278338 3:0.269504 4:0.436678 
0.00361719152441883 1:0.135548 2:0.277387 3:0.276662 4:0.428846 
0.00361719152441883 1:0.124513 2:0.278616 3:0.27972 4:0.428252 
0.00361719152441883 1:0.103127 2:0.275237 3:0.263976 4:0.436337 
0.00361719152441883 1:0.105713 2:0.271836 3:0.258809 4:0.435159 
0.00361719152441883 1:0.0939934 2:0.264829 3:0.264286 4:0.418484 
0.00361719152441883 1:0.0832979 2:0.260819 3:0.249949 4:0.424199 
0.00361719152441883 1:0.0904534 2:0.267923 3:0.2566 4:0.430461 
0.00361719152441883 1:0.0930447 2:0.264528 3:0.252899 4:0.427944 
0.00361719152441883 1:0.0956312 2:0.265415 3:0.258659 4:0.424376 
0.00361719152441883 1:0.0901088 2:0.263591 3:0.2566 4:0.423078 
0.00361719152441883 1:0.0914068 2:0.263591 3:0.2566 4:0.423078 
0.00361719152441883 1:0.0888156 2:0.263267 3:0.254589 4:0.424294 
0.00361719152441883 1:0.0939934 2:0.264528 3:0.262416 4:0.419594 
0.00361719152441883 1:0.0888156 2:0.262937 3:0.25254 4:0.425539 
0.00361719152441883 1:0.0820047 2:0.264829 3:0.256201 4:0.425539 
0.00361719152441883 1:0.077785 2:0.263407 3:0.258265 4:0.421306 
0.00361719152441883 1:0.0625206 2:0.260313 3:0.257658 4:0.416571 
0.00361719152441883 1:0.0557145 2:0.262258 3:0.260513 4:0.417399 
0.00361719152441883 1:0.0553699 2:0.262258 3:0.276765 4:0.403576 
0.00361719152441883 1:0.0527834 2:0.261116 3:0.270574 4:0.406864 
0.00361719152441883 1:0.0479501 2:0.265981 3:0.253227 4:0.43014 
0.00361719152441883 1:0.0599341 2:0.25871 3:0.24861 4:0.421759 
0.00361719152441883 1:0.0540766 2:0.262258 3:0.276765 4:0.403576 
0.00361719152441883 1:0.0501968 2:0.259259 3:0.260513 4:0.412311 
0.00361719152441883 1:0.0534678 2:0.262258 3:0.24426 4:0.431764 
0.00361719152441883 1:0.0540766 2:0.261696 3:0.273718 4:0.405188 
0.00361719152441883 1:0.0514901 2:0.267057 3:0.27812 4:0.410421 
0.00361719152441883 1:0.0531232 2:0.269006 3:0.273718 4:0.417399 
0.00361719152441883 1:0.0531232 2:0.268542 3:0.270574 4:0.419314 
0.00361719152441883 1:0.0654565 2:0.262258 3:0.255095 4:0.422125 
0.00361719152441883 1:0.0713187 2:0.265222 3:0.248084 4:0.433436 
0.00361719152441883 1:0.0794181 2:0.263773 3:0.249393 4:0.429772 
0.00361719152441883 1:0.0794181 2:0.263773 3:0.249393 4:0.429772 
0.00361719152441883 1:0.0794181 2:0.263773 3:0.249393 4:0.429772 
0.00361719152441883 1:0.0722627 2:0.260166 3:0.250686 4:0.422426 
0.00361719152441883 1:0.068043 2:0.258308 3:0.252783 4:0.417399 
0.00361719152441883 1:0.0632098 2:0.267467 3:0.249393 4:0.436121 
0.00361719152441883 1:0.0505367 2:0.274854 3:0.27812 4:0.423379 
0.00361719152441883 1:0.0457081 2:0.289582 3:0.276163 4:0.449589 
0.00361719152441883 1:0.0453636 2:0.281233 3:0.27972 4:0.432594 
0.00361719152441883 1:0.0438532 2:0.298246 3:0.28537 4:0.455774 
0.00361719152441883 1:0.0492434 2:0.274457 3:0.274837 4:0.425539 
0.00361719152441883 1:0.0560543 2:0.269892 3:0.263714 4:0.427535 
0.00361719152441883 1:0.0628699 2:0.261311 3:0.249393 4:0.425539 
0.00361719152441883 1:0.0764917 2:0.262258 3:0.251226 4:0.425539 
0.00361719152441883 1:0.0768316 2:0.263407 3:0.247027 4:0.431259 
0.00361719152441883 1:0.0820047 2:0.260441 3:0.247708 4:0.425539 
0.00361719152441883 1:0.0790783 2:0.259259 3:0.251709 4:0.419969 
0.00361719152441883 1:0.0768316 2:0.263032 3:0.24461 4:0.432787 
0.00361719152441883 1:0.0794181 2:0.259661 3:0.243087 4:0.428324 
0.00361719152441883 1:0.0845959 2:0.261553 3:0.254299 4:0.421619 
0.00361719152441883 1:0.086229 2:0.262258 3:0.248323 4:0.42812 
0.00361719152441883 1:0.0875223 2:0.262937 3:0.25254 4:0.425539 
0.00361719152441883 1:0.0901088 2:0.259617 3:0.248883 4:0.423078 
0.00361719152441883 1:0.0969245 2:0.262258 3:0.255095 4:0.422125 
0.00361719152441883 1:0.099511 2:0.263158 3:0.260513 4:0.418925 
0.00361719152441883 1:0.0930447 2:0.265124 3:0.256773 4:0.425539 
0.00361719152441883 1:0.0982177 2:0.262863 3:0.258737 4:0.419969 
0.00361719152441883 1:0.102437 2:0.26429 3:0.258809 4:0.422332 
0.00361719152441883 1:0.103731 2:0.261116 3:0.253805 4:0.421306 
0.00361719152441883 1:0.109857 2:0.259552 3:0.265279 4:0.408726 
0.00361719152441883 1:0.127019 2:0.263237 3:0.27776 4:0.404374 
0.00361719152441883 1:0.116673 2:0.264588 3:0.274193 4:0.409619 
0.00361719152441883 1:0.11115 2:0.259552 3:0.265279 4:0.408726 
0.00361719152441883 1:0.1115 2:0.260126 3:0.260513 4:0.413781 
0.00361719152441883 1:0.126075 2:0.263707 3:0.273275 4:0.408922 
0.00361719152441883 1:0.136421 2:0.268256 3:0.288955 4:0.40339 
0.00361719152441883 1:0.127019 2:0.263474 3:0.279071 4:0.403675 
0.00361719152441883 1:0.105977 2:0.258353 3:0.258875 4:0.412183 
0.00361719152441883 1:0.103731 2:0.261116 3:0.253805 4:0.421306 
0.00361719152441883 1:0.0985576 2:0.263158 3:0.251709 4:0.426653 
0.00361719152441883 1:0.1083 2:0.266104 3:0.254061 4:0.429609 
0.00361719152441883 1:0.10408 2:0.264561 3:0.252062 4:0.428745 
0.00361719152441883 1:0.0943379 2:0.265124 3:0.256773 4:0.425539 
0.00361719152441883 1:0.0930447 2:0.260984 3:0.247425 4:0.426728 
0.00361719152441883 1:0.0920912 2:0.264829 3:0.245421 4:0.435159 
0.00361719152441883 1:0.090798 2:0.264221 3:0.241305 4:0.437844 
0.00361719152441883 1:0.0989069 2:0.266794 3:0.24986 4:0.434545 
0.00361719152441883 1:0.0933845 2:0.265124 3:0.247425 4:0.433862 
0.00361719152441883 1:0.1002 2:0.267057 3:0.251709 4:0.433336 
0.00361719152441883 1:0.103466 2:0.268542 3:0.245421 4:0.441572 
0.00361719152441883 1:0.0979534 2:0.270493 3:0.247979 4:0.442607 
0.00361719152441883 1:0.0950176 2:0.2657 3:0.24214 4:0.439648 
0.00361719152441883 1:0.0920912 2:0.264829 3:0.245421 4:0.435159 
0.00361719152441883 1:0.0891554 2:0.263591 3:0.246819 4:0.431764 
0.00361719152441883 1:0.0895047 2:0.267923 3:0.246819 4:0.439233 
0.00361719152441883 1:0.0865689 2:0.266757 3:0.248323 4:0.435863 
0.00361719152441883 1:0.0852756 2:0.266451 3:0.246154 4:0.437297 
0.00361719152441883 1:0.0888156 2:0.262937 3:0.25254 4:0.425539 
0.00361719152441883 1:0.0820047 2:0.260819 3:0.249949 4:0.424199 
0.00361719152441883 1:0.0865689 2:0.266757 3:0.248323 4:0.435863 
0.00361719152441883 1:0.0904534 2:0.263591 3:0.246819 4:0.431764 
0.00361719152441883 1:0.0904534 2:0.263909 3:0.248883 4:0.430461 
0.00361719152441883 1:0.0985576 2:0.262863 3:0.24986 4:0.42779 
0.00361719152441883 1:0.0904534 2:0.263909 3:0.248883 4:0.430461 
0.00361719152441883 1:0.0852756 2:0.266451 3:0.246154 4:0.437297 
0.00361719152441883 1:0.0865689 2:0.262601 3:0.240391 4:0.435863 
0.00361719152441883 1:0.0807114 2:0.264484 3:0.253978 4:0.426913 
0.00361719152441883 1:0.0904534 2:0.263909 3:0.248883 4:0.430461 
0.00361719152441883 1:0.0878621 2:0.262937 3:0.242574 4:0.434463 
0.00361719152441883 1:0.0836425 2:0.261553 3:0.243942 4:0.43083 
0.00361719152441883 1:0.0875223 2:0.262937 3:0.25254 4:0.425539 
0.00361719152441883 1:0.0849358 2:0.261553 3:0.243942 4:0.43083 
0.00361719152441883 1:0.0888156 2:0.262937 3:0.25254 4:0.425539 
0.00361719152441883 1:0.0917514 2:0.260652 3:0.245421 4:0.427944 
0.00361719152441883 1:0.0930447 2:0.260984 3:0.247425 4:0.426728 
0.00361719152441883 1:0.0895047 2:0.263909 3:0.239191 4:0.439233 
0.00361719152441883 1:0.0820047 2:0.260441 3:0.247708 4:0.425539 
0.00361719152441883 1:0.0612274 2:0.253991 3:0.243382 4:0.418241 
0.00361719152441883 1:0.0544212 2:0.255061 3:0.24426 4:0.419314 
0.00361719152441883 1:0.0527834 2:0.261116 3:0.270574 4:0.406864 
0.00361719152441883 1:0.0524435 2:0.25369 3:0.270574 4:0.394415 
0.00361719152441883 1:0.0628699 2:0.255715 3:0.238561 4:0.425539 
0.00361719152441883 1:0.0625206 2:0.260819 3:0.260513 4:0.414957 
0.00361719152441883 1:0.068043 2:0.258308 3:0.252783 4:0.417399 
0.00361719152441883 1:0.0664005 2:0.256792 3:0.257838 4:0.410421 
0.00361719152441883 1:0.0621808 2:0.253991 3:0.257658 4:0.405809 
0.00361719152441883 1:0.0667497 2:0.25731 3:0.247308 4:0.4205 
0.00361719152441883 1:0.0790783 2:0.258849 3:0.249393 4:0.421306 
0.00361719152441883 1:0.0920912 2:0.264528 3:0.243382 4:0.436486 
0.00361719152441883 1:0.0937243 2:0.269265 3:0.247425 4:0.440996 
0.00361719152441883 1:0.0807114 2:0.260055 3:0.245421 4:0.426913 
0.00361719152441883 1:0.0807114 2:0.260055 3:0.245421 4:0.426913 
0.00361719152441883 1:0.0807114 2:0.264484 3:0.253978 4:0.426913 
0.00361719152441883 1:0.0807114 2:0.264484 3:0.253978 4:0.426913 
0.00361719152441883 1:0.0849358 2:0.265821 3:0.252145 4:0.43083 
0.00361719152441883 1:0.0794181 2:0.263773 3:0.249393 4:0.429772 
0.00361719152441883 1:0.0781249 2:0.263407 3:0.247027 4:0.431259 
0.00361719152441883 1:0.0865689 2:0.266757 3:0.248323 4:0.435863 
0.00361719152441883 1:0.0852756 2:0.270726 3:0.254299 4:0.437297 
0.00361719152441883 1:0.0882114 2:0.267351 3:0.242574 4:0.442113 
0.00361719152441883 1:0.0843316 2:0.270726 3:0.243942 4:0.446703 
0.00361719152441883 1:0.0830383 2:0.270453 3:0.241686 4:0.448311 
0.00361719152441883 1:0.0839823 2:0.270453 3:0.252145 4:0.438766 
0.00361719152441883 1:0.0813958 2:0.269892 3:0.247708 4:0.441819 
0.00361719152441883 1:0.0826891 2:0.269892 3:0.247708 4:0.441819 
0.00361719152441883 1:0.0817356 2:0.274618 3:0.247708 4:0.449959 
0.00361719152441883 1:0.074245 2:0.271358 3:0.253227 4:0.439342 
0.00361719152441883 1:0.074245 2:0.266706 3:0.246269 4:0.437633 
0.00361719152441883 1:0.0729518 2:0.271046 3:0.250686 4:0.441101 
0.00361719152441883 1:0.0670896 2:0.263158 3:0.247308 4:0.430578 
0.00361719152441883 1:0.0687274 2:0.269719 3:0.252783 4:0.436935 
0.00361719152441883 1:0.0648429 2:0.268256 3:0.241552 4:0.444621 
0.00361719152441883 1:0.0657963 2:0.268256 3:0.255095 4:0.432366 
0.00361719152441883 1:0.0648429 2:0.268256 3:0.241552 4:0.444621 
0.00361719152441883 1:0.0619165 2:0.266635 3:0.243382 4:0.440135 
0.00361719152441883 1:0.0606232 2:0.272255 3:0.251709 4:0.442247 
0.00361719152441883 1:0.0606232 2:0.271889 3:0.24861 4:0.444436 
0.00361719152441883 1:0.00189743 2:0.239766 3:0.207692 4:0.425539 
0.00361719152441883 1:0.0223726 2:0.246728 3:0.239133 4:0.409383 
0.00361719152441883 1:0.0218534 2:0.247708 3:0.240298 4:0.410063 
0.00361719152441883 1:0.0156939 2:0.24374 3:0.235897 4:0.40702 
0.00361719152441883 1:0.0156136 2:0.243298 3:0.237825 4:0.404557 
0.00361719152441883 1:0.0153918 2:0.240614 3:0.234485 4:0.402792 
0.00361719152441883 1:0.0154768 2:0.238733 3:0.232889 4:0.400895 
0.00361719152441883 1:0.0154201 2:0.239345 3:0.236193 4:0.399083 
0.00361719152441883 1:0.015406 2:0.239133 3:0.235342 4:0.399452 
0.00361719152441883 1:0.0154579 2:0.240181 3:0.235788 4:0.400895 
0.00361719152441883 1:0.0153635 2:0.238486 3:0.236609 4:0.39722 
0.00361719152441883 1:0.0155523 2:0.238965 3:0.236635 4:0.398034 
0.00361719152441883 1:0.020815 2:0.237545 3:0.234437 4:0.397464 
0.00361719152441883 1:0.0156656 2:0.236688 3:0.235493 4:0.395048 
0.00361719152441883 1:0.0219337 2:0.240666 3:0.237759 4:0.400024 
0.00361719152441883 1:0.0157128 2:0.239389 3:0.240066 4:0.395804 
0.00361719152441883 1:0.021372 2:0.238304 3:0.237404 4:0.396215 
0.00361719152441883 1:0.0223585 2:0.237163 3:0.233554 4:0.397563 
0.00361719152441883 1:0.0234724 2:0.239365 3:0.232471 4:0.402371 
0.00361719152441883 1:0.0345077 2:0.241508 3:0.235788 4:0.403215 
0.00361719152441883 1:0.0325725 2:0.241144 3:0.234272 4:0.403907 
0.00361719152441883 1:0.034654 2:0.241748 3:0.23455 4:0.404721 
0.00361719152441883 1:0.0235196 2:0.237406 3:0.232563 4:0.398853 
0.00361719152441883 1:0.0236234 2:0.239013 3:0.236029 4:0.398645 
0.00361719152441883 1:0.0403132 2:0.242105 3:0.233622 4:0.406163 
0.00361719152441883 1:0.0387509 2:0.243098 3:0.231041 4:0.410191 
0.00361719152441883 1:0.0398931 2:0.242489 3:0.231791 4:0.408454 
0.00361719152441883 1:0.0399167 2:0.244231 3:0.231791 4:0.411514 
0.00361719152441883 1:0.0376087 2:0.245518 3:0.235834 4:0.410182 
0.00361719152441883 1:0.037722 2:0.246159 3:0.232285 4:0.414458 
0.00361719152441883 1:0.0368157 2:0.246803 3:0.235089 4:0.413089 
0.00361719152441883 1:0.0236093 2:0.246824 3:0.235013 4:0.413193 
0.00361719152441883 1:0.0392795 2:0.246064 3:0.232071 4:0.414483 
0.00361719152441883 1:0.0389397 2:0.245145 3:0.234051 4:0.411109 
0.00361719152441883 1:0.0386659 2:0.243803 3:0.232175 4:0.410421 
0.00361719152441883 1:0.0404595 2:0.243454 3:0.233865 4:0.408312 
0.00361719152441883 1:0.0381987 2:0.241993 3:0.232568 4:0.406897 
0.001156986099451917 1:0.0392748 2:0.241891 3:0.231426 4:0.407727 
0.00361719152441883 1:0.0402991 2:0.241151 3:0.233189 4:0.404872 
0.00361719152441883 1:0.0406106 2:0.24404 3:0.236409 4:0.407093 
0.00361719152441883 1:0.0406342 2:0.245064 3:0.235369 4:0.409799 
0.00361719152441883 1:0.0397468 2:0.244603 3:0.233507 4:0.410642 
0.00361719152441883 1:0.040148 2:0.244066 3:0.234879 4:0.408487 
0.00361719152441883 1:0.0399923 2:0.243563 3:0.234642 4:0.407817 
0.00361719152441883 1:0.0413988 2:0.244623 3:0.233137 4:0.411005 
0.00361719152441883 1:0.0409787 2:0.243301 3:0.234604 4:0.407391 
0.00361719152441883 1:0.0409457 2:0.243921 3:0.235613 4:0.407587 
0.00361719152441883 1:0.0409457 2:0.243111 3:0.233782 4:0.407783 
0.00361719152441883 1:0.0408702 2:0.242823 3:0.234379 4:0.406752 
0.00361719152441883 1:0.0408513 2:0.241093 3:0.233964 4:0.404088 
0.00361719152441883 1:0.0415734 2:0.242623 3:0.23264 4:0.407939 
0.00361719152441883 1:0.0413422 2:0.242105 3:0.234103 4:0.40574 
0.00361719152441883 1:0.041918 2:0.241426 3:0.235186 4:0.4036 
0.00361719152441883 1:0.0415829 2:0.241769 3:0.233973 4:0.405266 
0.00361719152441883 1:0.0418047 2:0.241448 3:0.233849 4:0.404811 
0.00361719152441883 1:0.0417953 2:0.242942 3:0.233849 4:0.407429 
0.00361719152441883 1:0.0411156 2:0.241465 3:0.235231 4:0.403629 
0.00361719152441883 1:0.0413422 2:0.241918 3:0.233308 4:0.406111 
0.00361719152441883 1:0.0410873 2:0.241368 3:0.234826 4:0.403814 
0.00361719152441883 1:0.0415074 2:0.241982 3:0.233363 4:0.406176 
0.00361719152441883 1:0.0408796 2:0.240993 3:0.235395 4:0.402658 
0.00361719152441883 1:0.040502 2:0.241028 3:0.234293 4:0.403687 
0.00361719152441883 1:0.0409457 2:0.244546 3:0.236629 4:0.407783 
0.00361719152441883 1:0.039676 2:0.240869 3:0.234601 4:0.403139 
0.00361719152441883 1:0.0395911 2:0.242318 3:0.233251 4:0.406864 
0.00361719152441883 1:0.0396477 2:0.241752 3:0.232608 4:0.406439 
0.00361719152441883 1:0.0389303 2:0.241371 3:0.233585 4:0.40491 
0.00361719152441883 1:0.0400867 2:0.243003 3:0.234005 4:0.407398 
0.00361719152441883 1:0.0402802 2:0.244265 3:0.235747 4:0.408068 
0.00361719152441883 1:0.0374671 2:0.241683 3:0.235834 4:0.403481 
0.00361719152441883 1:0.0378116 2:0.241308 3:0.231799 4:0.406374 
0.00361719152441883 1:0.0372122 2:0.240249 3:0.236067 4:0.400772 
0.00361719152441883 1:0.0371744 2:0.239283 3:0.236067 4:0.399083 
0.00361719152441883 1:0.0363248 2:0.239521 3:0.235318 4:0.400153 
0.00361719152441883 1:0.0370376 2:0.240129 3:0.235579 4:0.400988 
0.00361719152441883 1:0.0235762 2:0.236688 3:0.233176 4:0.39706 
0.00361719152441883 1:0.0235951 2:0.234172 3:0.232954 4:0.392841 
0.00361719152441883 1:0.0293629 2:0.235733 3:0.23729 4:0.391828 
0.00361719152441883 1:0.0385008 2:0.23918 3:0.234685 4:0.400109 
0.00361719152441883 1:0.0343472 2:0.242145 3:0.238796 4:0.4017 
0.00361719152441883 1:0.0345077 2:0.243382 3:0.23979 4:0.402987 
0.00361719152441883 1:0.0335306 2:0.242385 3:0.23979 4:0.401252 
0.00361719152441883 1:0.0386659 2:0.246264 3:0.237037 4:0.410421 
0.00361719152441883 1:0.0373491 2:0.243489 3:0.237519 4:0.405156 
0.00361719152441883 1:0.0385244 2:0.244085 3:0.235631 4:0.407856 
0.00361719152441883 1:0.0380901 2:0.244374 3:0.237037 4:0.407123 
0.00361719152441883 1:0.0233213 2:0.239055 3:0.237894 4:0.397099 
0.00361719152441883 1:0.0236045 2:0.241415 3:0.238056 4:0.401073 
0.00361719152441883 1:0.0396477 2:0.244677 3:0.237933 4:0.406864 
0.00361719152441883 1:0.038109 2:0.240593 3:0.234903 4:0.40239 
0.00361719152441883 1:0.0234205 2:0.240041 3:0.233731 4:0.40245 
0.00361719152441883 1:0.0140938 2:0.2437 3:0.239669 4:0.403645 
0.00361719152441883 1:0.0101526 2:0.241538 3:0.241305 4:0.398468 
0.00361719152441883 1:0.00726875 2:0.251462 3:0.242906 4:0.414281 
0.00361719152441883 1:0.00507396 2:0.25666 3:0.248775 4:0.418087 
0.00361719152441883 1:0.00501732 2:0.250399 3:0.243706 4:0.411736 
0.00361719152441883 1:0.00515892 2:0.255715 3:0.247708 4:0.417399 
0.00361719152441883 1:0.00703275 2:0.243454 3:0.243382 4:0.399996 
0.00361719152441883 1:0.00512588 2:0.245192 3:0.243087 4:0.40326 
0.00361719152441883 1:0.0105114 2:0.247669 3:0.237672 4:0.412311 
0.00361719152441883 1:0.0156986 2:0.254196 3:0.238561 4:0.422893 
0.00361719152441883 1:0.0235809 2:0.240666 3:0.237295 4:0.400428 
0.00361719152441883 1:0.0400867 2:0.244331 3:0.236164 4:0.407817 
0.00361719152441883 1:0.0393267 2:0.242465 3:0.234103 4:0.40637 
0.00361719152441883 1:0.0392087 2:0.24374 3:0.233846 4:0.40883 
0.00361719152441883 1:0.0398884 2:0.241192 3:0.235936 4:0.402534 
0.00361719152441883 1:0.023529 2:0.237678 3:0.231273 4:0.40046 
0.00361719152441883 1:0.00729235 2:0.249198 3:0.24177 4:0.411356 
0.00361719152441883 1:0.0051542 2:0.256557 3:0.241686 4:0.424199 
0.00361719152441883 1:0.0231231 2:0.236593 3:0.231578 4:0.398287 
0.00361719152441883 1:0.0385904 2:0.238838 3:0.234941 4:0.399286 
0.00361719152441883 1:0.0232222 2:0.232419 3:0.232908 4:0.389807 
0.00361719152441883 1:0.0234441 2:0.233118 3:0.234041 4:0.390054 
0.00361719152441883 1:0.0234677 2:0.234792 3:0.233799 4:0.393196 
0.00361719152441883 1:0.0235526 2:0.232749 3:0.232342 4:0.390873 
0.00361719152441883 1:0.0348805 2:0.236399 3:0.235285 4:0.394723 
0.00361719152441883 1:0.0236281 2:0.23775 3:0.235013 4:0.39732 
0.00361719152441883 1:0.0350033 2:0.237526 3:0.235788 4:0.396257 
0.00361719152441883 1:0.0387698 2:0.241735 3:0.233318 4:0.405782 
0.00361719152441883 1:0.0388972 2:0.246875 3:0.233585 4:0.414555 
0.00361719152441883 1:0.0400159 2:0.245299 3:0.234642 4:0.410855 
0.00361719152441883 1:0.0396052 2:0.243991 3:0.234805 4:0.408421 
0.00361719152441883 1:0.0392748 2:0.244856 3:0.23681 4:0.408165 
0.00361719152441883 1:0.0393409 2:0.244959 3:0.237264 4:0.407946 
0.00361719152441883 1:0.0389491 2:0.243206 3:0.235656 4:0.406298 
0.00361719152441883 1:0.0392087 2:0.245352 3:0.237037 4:0.40883 
0.00361719152441883 1:0.0390058 2:0.242398 3:0.236118 4:0.404481 
0.00361719152441883 1:0.0394495 2:0.24416 3:0.237716 4:0.406156 
0.00361719152441883 1:0.0403227 2:0.245786 3:0.238763 4:0.408068 
0.00361719152441883 1:0.0406342 2:0.246264 3:0.237037 4:0.410421 
0.00361719152441883 1:0.0395722 2:0.242105 3:0.234354 4:0.405518 
0.00361719152441883 1:0.0397279 2:0.243518 3:0.232608 4:0.409536 
0.00361719152441883 1:0.0403132 2:0.243508 3:0.236179 4:0.406366 
0.00361719152441883 1:0.0395911 2:0.243206 3:0.235255 4:0.406651 
0.00361719152441883 1:0.0404595 2:0.244948 3:0.236825 4:0.408312 
0.00361719152441883 1:0.0398082 2:0.242844 3:0.235493 4:0.405809 
0.00361719152441883 1:0.0392937 2:0.244959 3:0.235224 4:0.409744 
0.00361719152441883 1:0.0398554 2:0.244029 3:0.232868 4:0.410202 
0.00361719152441883 1:0.0394872 2:0.243887 3:0.234354 4:0.408638 
0.00361719152441883 1:0.0392748 2:0.245062 3:0.237716 4:0.407727 
0.00361719152441883 1:0.0400489 2:0.245397 3:0.237037 4:0.40891 
0.00361719152441883 1:0.0397893 2:0.245383 3:0.237037 4:0.408884 
0.00361719152441883 1:0.0395627 2:0.24567 3:0.236366 4:0.409977 
0.00361719152441883 1:0.0387698 2:0.246571 3:0.236342 4:0.411572 
0.00361719152441883 1:0.0380618 2:0.246369 3:0.23538 4:0.412071 
0.00361719152441883 1:0.0375756 2:0.246371 3:0.239688 4:0.408273 
0.00361719152441883 1:0.0383875 2:0.24668 3:0.236802 4:0.411356 
0.00361719152441883 1:0.0367968 2:0.243778 3:0.236793 4:0.406298 
0.00361719152441883 1:0.0376087 2:0.245733 3:0.236797 4:0.409707 
0.00361719152441883 1:0.0282537 2:0.247045 3:0.238296 4:0.410671 
0.00361719152441883 1:0.0345596 2:0.246485 3:0.238036 4:0.409926 
0.00361719152441883 1:0.0379438 2:0.246898 3:0.235606 4:0.412796 
0.00361719152441883 1:0.0374671 2:0.246371 3:0.237519 4:0.410182 
0.00361719152441883 1:0.0235715 2:0.242722 3:0.234973 4:0.406053 
0.00361719152441883 1:0.0364098 2:0.245614 3:0.238504 4:0.407996 
0.00361719152441883 1:0.0235809 2:0.245129 3:0.236524 4:0.408893 
0.00361719152441883 1:0.0321005 2:0.246152 3:0.238796 4:0.408677 
0.00361719152441883 1:0.0380901 2:0.246473 3:0.233731 4:0.41372 
0.00361719152441883 1:0.0399687 2:0.245201 3:0.234201 4:0.411074 
0.00361719152441883 1:0.0400867 2:0.243766 3:0.235518 4:0.407398 
0.00361719152441883 1:0.0411109 2:0.248578 3:0.238444 4:0.413212 
0.00361719152441883 1:0.0409599 2:0.247076 3:0.238871 4:0.410219 
0.00361719152441883 1:0.0403227 2:0.244462 3:0.236609 4:0.407653 
0.00361719152441883 1:0.0414035 2:0.247563 3:0.237624 4:0.412169 
0.00361719152441883 1:0.0414035 2:0.247479 3:0.237233 4:0.412368 
0.00361719152441883 1:0.0413374 2:0.247137 3:0.239207 4:0.41003 
0.00361719152441883 1:0.0414979 2:0.247982 3:0.236067 4:0.414281 
0.00361719152441883 1:0.041413 2:0.247563 3:0.235863 4:0.41373 
0.00361719152441883 1:0.0414271 2:0.246177 3:0.236647 4:0.410615 
0.00361719152441883 1:0.0418566 2:0.246098 3:0.236289 4:0.410793 
0.00361719152441883 1:0.0421068 2:0.244654 3:0.237946 4:0.406815 
0.00361719152441883 1:0.0419794 2:0.244632 3:0.2363 4:0.408222 
0.00361719152441883 1:0.0418614 2:0.24395 3:0.236664 4:0.406712 
0.00361719152441883 1:0.0421493 2:0.244984 3:0.237759 4:0.407553 
0.00361719152441883 1:0.0421493 2:0.245542 3:0.238667 4:0.407727 
0.00361719152441883 1:0.0424278 2:0.244719 3:0.236339 4:0.40834 
0.00361719152441883 1:0.0421257 2:0.243376 3:0.235407 4:0.406815 
0.00361719152441883 1:0.0418991 2:0.241898 3:0.234061 4:0.405413 
0.00361719152441883 1:0.0419038 2:0.243467 3:0.236108 4:0.406357 
0.00361719152441883 1:0.0420926 2:0.244654 3:0.23631 4:0.408253 
0.00361719152441883 1:0.042036 2:0.2448 3:0.23869 4:0.406414 
0.00361719152441883 1:0.041531 2:0.242753 3:0.236844 4:0.404464 
0.00361719152441883 1:0.0418142 2:0.242942 3:0.235537 4:0.405942 
0.00361719152441883 1:0.0418566 2:0.243863 3:0.237972 4:0.405413 
0.00361719152441883 1:0.0415215 2:0.244889 3:0.236067 4:0.408877 
0.00361719152441883 1:0.0419416 2:0.245032 3:0.236481 4:0.408762 
0.00361719152441883 1:0.0418991 2:0.242639 3:0.235735 4:0.405238 
0.00361719152441883 1:0.041649 2:0.243475 3:0.234747 4:0.407569 
0.00361719152441883 1:0.0416537 2:0.243475 3:0.233029 4:0.409087 
0.00361719152441883 1:0.0419038 2:0.243381 3:0.235735 4:0.406534 
0.00361719152441883 1:0.0414554 2:0.243756 3:0.236256 4:0.406731 
0.00361719152441883 1:0.0416773 2:0.244909 3:0.236081 4:0.4089 
0.00361719152441883 1:0.0413894 2:0.245741 3:0.236447 4:0.41003 
0.00361719152441883 1:0.0409835 2:0.245452 3:0.237037 4:0.409004 
0.00361719152441883 1:0.0406625 2:0.244874 3:0.236409 4:0.408549 
0.00361719152441883 1:0.0407758 2:0.24608 3:0.238076 4:0.409184 
0.00361719152441883 1:0.0402802 2:0.244926 3:0.236821 4:0.408277 
0.00361719152441883 1:0.0409032 2:0.248091 3:0.237862 4:0.412878 
0.00361719152441883 1:0.040115 2:0.246167 3:0.236601 4:0.410638 
0.00361719152441883 1:0.0401716 2:0.246551 3:0.236389 4:0.411496 
0.00361719152441883 1:0.0390671 2:0.245145 3:0.236118 4:0.409279 
0.00361719152441883 1:0.0397893 2:0.245869 3:0.23726 4:0.409536 
0.00361719152441883 1:0.0402991 2:0.246835 3:0.237682 4:0.410848 
0.00361719152441883 1:0.0402047 2:0.246456 3:0.237903 4:0.409991 
0.00361719152441883 1:0.0390294 2:0.246976 3:0.236118 4:0.412478 
0.00361719152441883 1:0.0391238 2:0.247275 3:0.235438 4:0.413604 
0.00361719152441883 1:0.0385055 2:0.246057 3:0.233997 4:0.412753 
0.00361719152441883 1:0.0388783 2:0.246571 3:0.234259 4:0.413422 
0.00361719152441883 1:0.04003 2:0.247035 3:0.236601 4:0.412153 
0.00361719152441883 1:0.0400772 2:0.24713 3:0.237037 4:0.411933 
0.00361719152441883 1:0.0399026 2:0.245778 3:0.236818 4:0.409767 
0.00361719152441883 1:0.040115 2:0.244828 3:0.234443 4:0.410206 
0.00361719152441883 1:0.040115 2:0.245592 3:0.235954 4:0.410206 
0.00361719152441883 1:0.0396619 2:0.244196 3:0.235703 4:0.407988 
0.00361719152441883 1:0.0401811 2:0.244828 3:0.238334 4:0.406776 
0.00361719152441883 1:0.039912 2:0.242385 3:0.235285 4:0.405188 
0.00361719152441883 1:0.0391238 2:0.24374 3:0.235897 4:0.40702 
0.00361719152441883 1:0.0392748 2:0.243259 3:0.233645 4:0.408165 
0.00361719152441883 1:0.0397704 2:0.243723 3:0.235493 4:0.407347 
0.00361719152441883 1:0.0385008 2:0.243151 3:0.235631 4:0.406224 
0.00361719152441883 1:0.0389491 2:0.243421 3:0.236579 4:0.405863 
0.00361719152441883 1:0.0380618 2:0.243317 3:0.236562 4:0.405697 
0.00361719152441883 1:0.0369479 2:0.242921 3:0.237281 4:0.404374 
0.00361719152441883 1:0.0371886 2:0.244227 3:0.238731 4:0.405382 
0.00361719152441883 1:0.0372972 2:0.243149 3:0.23825 4:0.403925 
0.00361719152441883 1:0.0335306 2:0.242265 3:0.239294 4:0.401475 
0.00361719152441883 1:0.0358245 2:0.242223 3:0.238763 4:0.401864 
0.00361719152441883 1:0.0362163 2:0.242341 3:0.237037 4:0.403576 
0.00361719152441883 1:0.033979 2:0.242503 3:0.235788 4:0.404954 
0.00361719152441883 1:0.0235668 2:0.239766 3:0.233176 4:0.402456 
0.00361719152441883 1:0.0236234 2:0.241021 3:0.238296 4:0.400177 
0.00361719152441883 1:0.0337666 2:0.241508 3:0.235788 4:0.403215 
0.00361719152441883 1:0.0361219 2:0.24124 3:0.236544 4:0.402086 
0.00361719152441883 1:0.0372122 2:0.240369 3:0.236553 4:0.400557 
0.00361719152441883 1:0.0372122 2:0.240249 3:0.236067 4:0.400772 
0.00361719152441883 1:0.0357396 2:0.240379 3:0.237037 4:0.400153 
0.00361719152441883 1:0.0236281 2:0.238009 3:0.236029 4:0.396891 
0.00361719152441883 1:0.0365656 2:0.239766 3:0.236303 4:0.399722 
0.00361719152441883 1:0.0382506 2:0.241055 3:0.234685 4:0.40339 
0.00361719152441883 1:0.037906 2:0.241423 3:0.234423 4:0.404264 
0.00361719152441883 1:0.0345077 2:0.240879 3:0.235052 4:0.40276 
0.00361719152441883 1:0.0378541 2:0.243317 3:0.234423 4:0.407579 
0.00361719152441883 1:0.0370848 2:0.242183 3:0.23825 4:0.402241 
0.00361719152441883 1:0.0385008 2:0.243261 3:0.236102 4:0.406002 
0.00361719152441883 1:0.0394495 2:0.242785 3:0.235466 4:0.40573 
0.00361719152441883 1:0.0399687 2:0.241723 3:0.234201 4:0.404983 
0.00361719152441883 1:0.0393881 2:0.242785 3:0.235466 4:0.40573 
0.00361719152441883 1:0.0391002 2:0.243528 3:0.237037 4:0.405647 
0.00361719152441883 1:0.0395911 2:0.243991 3:0.236814 4:0.406651 
0.00361719152441883 1:0.0398412 2:0.244804 3:0.236378 4:0.408454 
0.00361719152441883 1:0.0405728 2:0.245331 3:0.238512 4:0.407495 
0.00361719152441883 1:0.0406955 2:0.244328 3:0.235788 4:0.408143 
0.00361719152441883 1:0.0399923 2:0.244431 3:0.236601 4:0.407607 
0.00361719152441883 1:0.0405823 2:0.244779 3:0.235989 4:0.408753 
0.00361719152441883 1:0.0397704 2:0.244502 3:0.237037 4:0.407347 
0.00361719152441883 1:0.0406955 2:0.245801 3:0.238708 4:0.408143 
0.00361719152441883 1:0.0402991 2:0.242551 3:0.235747 4:0.405073 
0.00361719152441883 1:0.0402991 2:0.242653 3:0.236179 4:0.404872 
0.00361719152441883 1:0.0401197 2:0.243003 3:0.235954 4:0.405681 
0.00361719152441883 1:0.0402094 2:0.243866 3:0.237903 4:0.405478 
0.00361719152441883 1:0.0403132 2:0.244265 3:0.237682 4:0.406366 
0.00361719152441883 1:0.0407239 2:0.243499 3:0.235788 4:0.406694 
0.00361719152441883 1:0.0394825 2:0.240212 3:0.233901 4:0.402602 
0.00361719152441883 1:0.0394825 2:0.240886 3:0.235013 4:0.402807 
0.00361719152441883 1:0.0394211 2:0.240886 3:0.235013 4:0.402807 
0.00361719152441883 1:0.0404831 2:0.240718 3:0.236825 4:0.400929 
0.00361719152441883 1:0.0406578 2:0.240704 3:0.234526 4:0.402915 
0.00361719152441883 1:0.0404123 2:0.241358 3:0.235972 4:0.402792 
0.00361719152441883 1:0.0404029 2:0.240404 3:0.235543 4:0.4015 
0.00361719152441883 1:0.0411109 2:0.240567 3:0.234826 4:0.402412 
0.00361719152441883 1:0.0403179 2:0.240837 3:0.235747 4:0.402078 
0.00361719152441883 1:0.0407711 2:0.241213 3:0.234756 4:0.403603 
0.00361719152441883 1:0.0394825 2:0.240996 3:0.235466 4:0.402602 
0.00361719152441883 1:0.0408088 2:0.241413 3:0.23559 4:0.403223 
0.00361719152441883 1:0.040941 2:0.240578 3:0.235203 4:0.402102 
0.00361719152441883 1:0.0402849 2:0.240942 3:0.234247 4:0.403576 
0.00361719152441883 1:0.0406955 2:0.24101 3:0.235788 4:0.402345 
0.00361719152441883 1:0.0407097 2:0.239351 3:0.235788 4:0.399446 
0.00361719152441883 1:0.0385621 2:0.23872 3:0.23657 4:0.397662 
0.00361719152441883 1:0.0374529 2:0.238807 3:0.237999 4:0.396577 
0.00361719152441883 1:0.0408702 2:0.240073 3:0.234981 4:0.401412 
0.00361719152441883 1:0.0404029 2:0.240509 3:0.235972 4:0.401309 
0.00361719152441883 1:0.04062 2:0.241437 3:0.235989 4:0.402915 
0.00361719152441883 1:0.0407994 2:0.24059 3:0.23559 4:0.401783 
0.00361719152441883 1:0.0403746 2:0.241255 3:0.235543 4:0.402987 
0.00361719152441883 1:0.040266 2:0.239873 3:0.235314 4:0.400772 
0.00361719152441883 1:0.0403651 2:0.240299 3:0.235113 4:0.401692 
0.00361719152441883 1:0.040738 2:0.24194 3:0.236206 4:0.403603 
0.00361719152441883 1:0.0405209 2:0.240082 3:0.235768 4:0.400741 
0.00361719152441883 1:0.0404926 2:0.240925 3:0.235768 4:0.402214 
0.00361719152441883 1:0.0410259 2:0.24188 3:0.235421 4:0.404187 
0.00361719152441883 1:0.0403179 2:0.240299 3:0.235113 4:0.401692 
0.00361719152441883 1:0.0393739 2:0.240886 3:0.232989 4:0.404584 
0.00361719152441883 1:0.0406861 2:0.240181 3:0.235788 4:0.400895 
0.00361719152441883 1:0.040266 2:0.239873 3:0.235314 4:0.400772 
0.00361719152441883 1:0.0401763 2:0.239766 3:0.234879 4:0.400964 
0.00361719152441883 1:0.0388075 2:0.240112 3:0.234259 4:0.402113 
0.00361719152441883 1:0.0402235 2:0.239766 3:0.234879 4:0.400964 
0.00361719152441883 1:0.0403746 2:0.241151 3:0.235113 4:0.403182 
0.00361719152441883 1:0.0396335 2:0.241538 3:0.233702 4:0.405099 
0.00361719152441883 1:0.0400017 2:0.240853 3:0.234201 4:0.403461 
0.00361719152441883 1:0.0388642 2:0.239421 3:0.235192 4:0.400088 
0.00361719152441883 1:0.0363248 2:0.239521 3:0.235318 4:0.400153 
0.00361719152441883 1:0.0365656 2:0.239644 3:0.235812 4:0.399937 
0.00361719152441883 1:0.0373349 2:0.239525 3:0.237037 4:0.398663 
0.00361719152441883 1:0.0236187 2:0.238758 3:0.23729 4:0.397105 
0.00361719152441883 1:0.0354375 2:0.237912 3:0.237285 4:0.395633 
0.00361719152441883 1:0.0373349 2:0.238685 3:0.23535 4:0.398663 
0.00361719152441883 1:0.0236187 2:0.238629 3:0.236784 4:0.39732 
0.00361719152441883 1:0.0236093 2:0.239513 3:0.236275 4:0.399304 
0.00361719152441883 1:0.0236281 2:0.238009 3:0.236029 4:0.396891 
0.00361719152441883 1:0.0235573 2:0.236417 3:0.232125 4:0.397501 
0.00361719152441883 1:0.0233921 2:0.235204 3:0.232042 4:0.395443 
0.00361719152441883 1:0.0235007 2:0.235797 3:0.232788 4:0.395834 
0.00361719152441883 1:0.0235385 2:0.238854 3:0.231809 4:0.402057 
0.00361719152441883 1:0.0363437 2:0.243551 3:0.235812 4:0.406764 
0.00361719152441883 1:0.023411 2:0.238126 3:0.232375 4:0.400282 
0.00361719152441883 1:0.0234441 2:0.240716 3:0.234041 4:0.403361 
0.00361719152441883 1:0.0234393 2:0.237459 3:0.23159 4:0.399798 
0.00361719152441883 1:0.0235101 2:0.236078 3:0.231485 4:0.397464 
0.00361719152441883 1:0.0235196 2:0.237406 3:0.232563 4:0.398853 
0.00361719152441883 1:0.034923 2:0.23989 3:0.235052 4:0.40103 
0.00361719152441883 1:0.0372547 2:0.240607 3:0.23535 4:0.402023 
0.00361719152441883 1:0.0367449 2:0.242806 3:0.236793 4:0.404601 
0.00361719152441883 1:0.0362824 2:0.242458 3:0.235318 4:0.405287 
0.00361719152441883 1:0.0371886 2:0.242413 3:0.234863 4:0.405609 
0.00361719152441883 1:0.0352676 2:0.243846 3:0.237285 4:0.405985 
0.00361719152441883 1:0.0379344 2:0.24237 3:0.234423 4:0.405922 
0.00361719152441883 1:0.037906 2:0.240476 3:0.232285 4:0.404485 
0.00361719152441883 1:0.0353714 2:0.23989 3:0.235052 4:0.40103 
0.00361719152441883 1:0.0343472 2:0.239642 3:0.234046 4:0.401475 
0.00361719152441883 1:0.0235101 2:0.23805 3:0.233328 4:0.399315 
0.00361719152441883 1:0.0233449 2:0.237371 3:0.232512 4:0.398836 
0.00361719152441883 1:0.0234535 2:0.236802 3:0.233251 4:0.397194 
0.00361719152441883 1:0.0234677 2:0.237084 3:0.231922 4:0.398848 
0.00361719152441883 1:0.0234818 2:0.236576 3:0.231702 4:0.39815 
0.00361719152441883 1:0.0312084 2:0.238394 3:0.233033 4:0.400177 
0.00361719152441883 1:0.0235715 2:0.236823 3:0.231386 4:0.398858 
0.00361719152441883 1:0.0236234 2:0.238886 3:0.235522 4:0.398863 
0.00361719152441883 1:0.0383544 2:0.240234 3:0.233046 4:0.40339 
0.00361719152441883 1:0.0376464 2:0.241192 3:0.233458 4:0.404708 
0.00361719152441883 1:0.0391379 2:0.24374 3:0.233846 4:0.40883 
0.00361719152441883 1:0.0395486 2:0.243991 3:0.234805 4:0.408421 
0.00361719152441883 1:0.0405162 2:0.242611 3:0.235768 4:0.40516 
0.00361719152441883 1:0.0410165 2:0.240877 3:0.234604 4:0.403149 
0.00361719152441883 1:0.0328274 2:0.239266 3:0.237037 4:0.398211 
0.00361719152441883 1:0.0381751 2:0.241055 3:0.232568 4:0.405252 
0.00361719152441883 1:0.0235526 2:0.237581 3:0.232651 4:0.399083 
0.00361719152441883 1:0.0235668 2:0.235662 3:0.230859 4:0.39728 
0.00361719152441883 1:0.0235479 2:0.233931 3:0.23053 4:0.394522 
0.00361719152441883 1:0.0233827 2:0.234098 3:0.229545 4:0.395675 
0.00361719152441883 1:0.0235715 2:0.234914 3:0.231911 4:0.395048 
0.00361719152441883 1:0.0232553 2:0.234238 3:0.232657 4:0.393214 
0.00361719152441883 1:0.0409174 2:0.241192 3:0.234379 4:0.403899 
0.00361719152441883 1:0.023614 2:0.234588 3:0.236784 4:0.390265 
0.00361719152441883 1:0.0235762 2:0.23361 3:0.235493 4:0.389667 
0.00361719152441883 1:0.0234629 2:0.231718 3:0.234345 4:0.387343 
0.00361719152441883 1:0.0233685 2:0.235268 3:0.235626 4:0.392449 
0.00361719152441883 1:0.0235715 2:0.231704 3:0.233698 4:0.387873 
0.00361719152441883 1:0.0235998 2:0.231267 3:0.233472 4:0.387301 
0.00361719152441883 1:0.0419605 2:0.24096 3:0.234642 4:0.40326 
0.00361719152441883 1:0.0405445 2:0.24187 3:0.236193 4:0.403493 
0.00361719152441883 1:0.0408843 2:0.241811 3:0.235395 4:0.404088 
0.00361719152441883 1:0.0404454 2:0.239977 3:0.235342 4:0.400929 
0.00361719152441883 1:0.0408371 2:0.244075 3:0.236419 4:0.407145 
0.00361719152441883 1:0.0403321 2:0.2419 3:0.236609 4:0.403182 
0.00361719152441883 1:0.0401433 2:0.240732 3:0.235314 4:0.402273 
0.00361719152441883 1:0.0407475 2:0.243499 3:0.237661 4:0.405049 
0.00361719152441883 1:0.0400867 2:0.243003 3:0.234005 4:0.407398 
0.00361719152441883 1:0.0400253 2:0.243462 3:0.236164 4:0.406298 
0.00361719152441883 1:0.0379344 2:0.241653 3:0.233251 4:0.405697 
0.00361719152441883 1:0.0381751 2:0.241055 3:0.232568 4:0.405252 
0.00361719152441883 1:0.0391143 2:0.23988 3:0.234978 4:0.401077 
0.00361719152441883 1:0.0394495 2:0.242785 3:0.235466 4:0.40573 
0.00361719152441883 1:0.0387934 2:0.24288 3:0.234259 4:0.406959 
0.00361719152441883 1:0.0385008 2:0.242329 3:0.233997 4:0.406224 
0.00361719152441883 1:0.0353714 2:0.240013 3:0.235551 4:0.400809 
0.00361719152441883 1:0.0347956 2:0.240635 3:0.238532 4:0.3993 
0.00361719152441883 1:0.0393739 2:0.243153 3:0.237264 4:0.404795 
0.00361719152441883 1:0.039407 2:0.244265 3:0.236134 4:0.407727 
0.00361719152441883 1:0.0300284 2:0.240017 3:0.238296 4:0.398427 
0.00361719152441883 1:0.0375048 2:0.242756 3:0.236317 4:0.404931 
0.00361719152441883 1:0.0376795 2:0.243713 3:0.236317 4:0.406602 
0.00361719152441883 1:0.0235621 2:0.240284 3:0.238076 4:0.399083 
0.00361719152441883 1:0.0365278 2:0.243665 3:0.238504 4:0.404601 
0.00361719152441883 1:0.0373349 2:0.241216 3:0.240432 4:0.398663 
0.00361719152441883 1:0.0413516 2:0.248543 3:0.238423 4:0.41317 
0.00361719152441883 1:0.0389963 2:0.247494 3:0.24051 4:0.409505 
0.00361719152441883 1:0.035159 2:0.240513 3:0.240284 4:0.39757 
0.00361719152441883 1:0.0235668 2:0.236143 3:0.238076 4:0.391868 
0.00361719152441883 1:0.0334457 2:0.238138 3:0.238796 4:0.394723 
0.00361719152441883 1:0.0235007 2:0.235513 3:0.236503 4:0.392121 
0.00361719152441883 1:0.0234063 2:0.233146 3:0.235099 4:0.389193 
0.00361719152441883 1:0.0232836 2:0.232564 3:0.235013 4:0.388249 
0.00361719152441883 1:0.039676 2:0.240652 3:0.233702 4:0.403546 
0.00361719152441883 1:0.0406106 2:0.243846 3:0.235567 4:0.407495 
0.00361719152441883 1:0.0397563 2:0.24274 3:0.235048 4:0.406018 
0.00361719152441883 1:0.0391899 2:0.242939 3:0.234307 4:0.40702 
0.00361719152441883 1:0.0359001 2:0.238166 3:0.236049 4:0.397148 
0.00361719152441883 1:0.0399498 2:0.240746 3:0.233758 4:0.403662 
0.00361719152441883 1:0.0387698 2:0.241147 3:0.232647 4:0.405344 
0.00361719152441883 1:0.0397704 2:0.242844 3:0.233507 4:0.407559 
0.00361719152441883 1:0.0413988 2:0.246004 3:0.235863 4:0.411005 
0.00361719152441883 1:0.0411251 2:0.245554 3:0.235635 4:0.410421 
0.00361719152441883 1:0.0401575 2:0.244926 3:0.234879 4:0.409991 
0.00361719152441883 1:0.0407994 2:0.243351 3:0.234981 4:0.407145 
0.00361719152441883 1:0.0404879 2:0.243454 3:0.235768 4:0.406633 
0.00361719152441883 1:0.0412997 2:0.245387 3:0.236641 4:0.409241 
0.00361719152441883 1:0.0409315 2:0.246264 3:0.237037 4:0.410421 
0.00361719152441883 1:0.0408419 2:0.244989 3:0.236831 4:0.408378 
0.00361719152441883 1:0.0394872 2:0.243206 3:0.233251 4:0.408421 
0.00361719152441883 1:0.0401197 2:0.242243 3:0.234443 4:0.405681 
0.00361719152441883 1:0.0410637 2:0.2468 3:0.237642 4:0.410822 
0.00361719152441883 1:0.0399309 2:0.24336 3:0.235726 4:0.406506 
0.00361719152441883 1:0.0397987 2:0.241965 3:0.235493 4:0.404272 
0.00361719152441883 1:0.0393598 2:0.240776 3:0.234559 4:0.403012 
0.00361719152441883 1:0.0392418 2:0.24225 3:0.235224 4:0.405006 
0.00361719152441883 1:0.0398743 2:0.239657 3:0.234843 4:0.400805 
0.00361719152441883 1:0.0402991 2:0.243408 3:0.237682 4:0.404872 
0.00361719152441883 1:0.0386848 2:0.242068 3:0.234726 4:0.405126 
0.00361719152441883 1:0.0403651 2:0.244657 3:0.237464 4:0.407242 
0.00361719152441883 1:0.0397421 2:0.241965 3:0.235493 4:0.404272 
0.00361719152441883 1:0.0371272 2:0.241451 3:0.234863 4:0.403925 
0.00361719152441883 1:0.0393598 2:0.241565 3:0.236134 4:0.403012 
0.00361719152441883 1:0.0400395 2:0.243665 3:0.235081 4:0.407607 
0.00361719152441883 1:0.0375048 2:0.241076 3:0.232973 4:0.404931 
0.00361719152441883 1:0.0371272 2:0.241451 3:0.234863 4:0.403925 
0.00361719152441883 1:0.036896 2:0.242067 3:0.237766 4:0.402461 
0.00361719152441883 1:0.0381751 2:0.24188 3:0.234209 4:0.405252 
0.00361719152441883 1:0.0376087 2:0.241076 3:0.235125 4:0.403041 
0.00361719152441883 1:0.0389491 2:0.244017 3:0.237268 4:0.406298 
0.00361719152441883 1:0.036693 2:0.241833 3:0.236793 4:0.402903 
0.00361719152441883 1:0.0364664 2:0.241715 3:0.236303 4:0.403126 
0.00361719152441883 1:0.0373774 2:0.241451 3:0.239211 4:0.40013 
0.00361719152441883 1:0.0235904 2:0.239129 3:0.237037 4:0.397972 
0.00361719152441883 1:0.0394683 2:0.24347 3:0.234559 4:0.407727 
0.00361719152441883 1:0.0385668 2:0.243151 3:0.23774 4:0.404374 
0.00361719152441883 1:0.0235762 2:0.237714 3:0.235493 4:0.396841 
0.00361719152441883 1:0.0235479 2:0.236006 3:0.235215 4:0.394095 
0.00361719152441883 1:0.0346068 2:0.238775 3:0.236788 4:0.39757 
0.00361719152441883 1:0.0365089 2:0.239644 3:0.238017 4:0.398019 
0.00361719152441883 1:0.0399781 2:0.242489 3:0.233758 4:0.406715 
0.00361719152441883 1:0.0235668 2:0.236417 3:0.234452 4:0.395476 
0.00361719152441883 1:0.0344557 2:0.237655 3:0.236289 4:0.396047 
0.00361719152441883 1:0.0366222 2:0.236842 3:0.236303 4:0.394615 
0.00361719152441883 1:0.0235243 2:0.232309 3:0.233098 4:0.389449 
0.00361719152441883 1:0.0360275 2:0.237309 3:0.238763 4:0.393307 
0.00361719152441883 1:0.0392559 2:0.239427 3:0.234767 4:0.400469 
0.00361719152441883 1:0.0398365 2:0.240423 3:0.234399 4:0.402534 
0.00361719152441883 1:0.0424891 2:0.242078 3:0.2336 4:0.406135 
0.00361719152441883 1:0.0421729 2:0.243164 3:0.234345 4:0.40738 
0.00361719152441883 1:0.0418566 2:0.241808 3:0.233683 4:0.405589 
0.00361719152441883 1:0.0423522 2:0.244399 3:0.234932 4:0.409023 
0.00361719152441883 1:0.0418566 2:0.241808 3:0.233683 4:0.405589 
0.00361719152441883 1:0.042272 2:0.243665 3:0.234903 4:0.407764 
0.00361719152441883 1:0.0418425 2:0.240884 3:0.234607 4:0.403158 
0.00361719152441883 1:0.0418378 2:0.2407 3:0.235537 4:0.402023 
0.00361719152441883 1:0.0420879 2:0.241122 3:0.235041 4:0.403194 
0.00361719152441883 1:0.0423003 2:0.242049 3:0.233865 4:0.405851 
0.00361719152441883 1:0.0422578 2:0.242162 3:0.236146 4:0.404044 
0.00361719152441883 1:0.0423806 2:0.243165 3:0.235638 4:0.406243 
0.00361719152441883 1:0.042003 2:0.241139 3:0.235384 4:0.402924 
0.00361719152441883 1:0.0419369 2:0.241516 3:0.235558 4:0.40343 
0.00361719152441883 1:0.0424797 2:0.244582 3:0.235656 4:0.408703 
0.00361719152441883 1:0.0420077 2:0.24269 3:0.237404 4:0.403864 
0.00361719152441883 1:0.0420502 2:0.242047 3:0.236121 4:0.403864 
0.00361719152441883 1:0.041918 2:0.241337 3:0.234812 4:0.403771 
0.00361719152441883 1:0.0415734 2:0.240725 3:0.234536 4:0.402943 
0.00361719152441883 1:0.0423381 2:0.245482 3:0.236684 4:0.409369 
0.00361719152441883 1:0.0412289 2:0.244326 3:0.237236 4:0.406864 
0.00361719152441883 1:0.0421398 2:0.24274 3:0.235771 4:0.405382 
0.00361719152441883 1:0.0415734 2:0.240725 3:0.234536 4:0.402943 
0.00361719152441883 1:0.0421776 2:0.242363 3:0.235599 4:0.404875 
0.00361719152441883 1:0.0423617 2:0.242468 3:0.234063 4:0.406409 
0.00361719152441883 1:0.0426307 2:0.245665 3:0.235853 4:0.410421 
0.00361719152441883 1:0.0424278 2:0.241496 3:0.234259 4:0.404536 
0.00361719152441883 1:0.0428526 2:0.24532 3:0.235726 4:0.409932 
0.00361719152441883 1:0.0424938 2:0.243367 3:0.2348 4:0.407335 
0.00361719152441883 1:0.0426071 2:0.243563 3:0.233988 4:0.408394 
0.00361719152441883 1:0.0425646 2:0.242567 3:0.234141 4:0.406515 
0.00361719152441883 1:0.0423098 2:0.244075 3:0.236684 4:0.406912 
0.00361719152441883 1:0.0426543 2:0.244394 3:0.236193 4:0.407902 
0.00361719152441883 1:0.0426071 2:0.244082 3:0.234829 4:0.40856 
0.00361719152441883 1:0.0424278 2:0.241496 3:0.234259 4:0.404536 
0.00361719152441883 1:0.0426354 2:0.244394 3:0.236193 4:0.407902 
0.00361719152441883 1:0.0421634 2:0.242363 3:0.233981 4:0.406298 
0.00361719152441883 1:0.0423428 2:0.242918 3:0.234577 4:0.406744 
0.00361719152441883 1:0.0418944 2:0.241898 3:0.235735 4:0.403942 
0.00361719152441883 1:0.0423381 2:0.242752 3:0.235451 4:0.405684 
0.00361719152441883 1:0.0422767 2:0.241538 3:0.234903 4:0.404044 
0.00361719152441883 1:0.0427912 2:0.245457 3:0.236375 4:0.409598 
0.00361719152441883 1:0.0424514 2:0.242271 3:0.23461 4:0.405584 
0.00361719152441883 1:0.042475 2:0.2426 3:0.234452 4:0.406298 
0.00361719152441883 1:0.0428006 2:0.24429 3:0.235551 4:0.408285 
0.00361719152441883 1:0.0425222 2:0.242323 3:0.234642 4:0.405647 
0.00361719152441883 1:0.0429186 2:0.24332 3:0.235416 4:0.406709 
0.00361719152441883 1:0.0429092 2:0.243891 3:0.235089 4:0.407996 
0.00361719152441883 1:0.0429611 2:0.244907 3:0.235263 4:0.409619 
0.00361719152441883 1:0.0426402 2:0.241356 3:0.234518 4:0.404062 
0.00361719152441883 1:0.042593 2:0.242132 3:0.235171 4:0.404847 
0.00361719152441883 1:0.0430319 2:0.244924 3:0.235285 4:0.409628 
0.00361719152441883 1:0.0425127 2:0.243528 3:0.235493 4:0.407005 
0.00361719152441883 1:0.0428714 2:0.242938 3:0.235241 4:0.406195 
0.00361719152441883 1:0.042239 2:0.241452 3:0.234543 4:0.404209 
0.00361719152441883 1:0.0423806 2:0.243083 3:0.235285 4:0.406409 
0.00361719152441883 1:0.0423522 2:0.241686 3:0.235285 4:0.403967 
0.00361719152441883 1:0.0423853 2:0.241158 3:0.235989 4:0.402428 
0.00361719152441883 1:0.0428101 2:0.24429 3:0.237037 4:0.406977 
0.00361719152441883 1:0.0424278 2:0.24158 3:0.23461 4:0.404374 
0.00361719152441883 1:0.0424986 2:0.241476 3:0.235493 4:0.403418 
0.00361719152441883 1:0.0421162 2:0.242105 3:0.236134 4:0.403955 
0.00361719152441883 1:0.0423098 2:0.24188 3:0.23633 4:0.40339 
0.00361719152441883 1:0.042541 2:0.243687 3:0.237721 4:0.405326 
0.00361719152441883 1:0.0421351 2:0.24156 3:0.235237 4:0.403789 
0.00361719152441883 1:0.042239 2:0.242162 3:0.236146 4:0.404044 
0.00361719152441883 1:0.0423758 2:0.242551 3:0.235989 4:0.404861 
0.00361719152441883 1:0.042508 2:0.244053 3:0.237898 4:0.405809 
0.00361719152441883 1:0.0424797 2:0.244582 3:0.23721 4:0.407335 
0.00361719152441883 1:0.0423003 2:0.243372 3:0.236684 4:0.405684 
0.00361719152441883 1:0.0422059 2:0.243415 3:0.237037 4:0.405451 
0.00361719152441883 1:0.0425127 2:0.244212 3:0.237037 4:0.406841 
0.00361719152441883 1:0.0420266 2:0.242134 3:0.236489 4:0.403696 
0.00361719152441883 1:0.042626 2:0.246865 3:0.239751 4:0.409078 
0.00361719152441883 1:0.0423664 2:0.245719 3:0.239321 4:0.407462 
0.00361719152441883 1:0.0422154 2:0.243248 3:0.237933 4:0.404374 
0.00361719152441883 1:0.0418047 2:0.242195 3:0.235537 4:0.404636 
0.00361719152441883 1:0.0428337 2:0.24641 3:0.239177 4:0.40879 
0.00361719152441883 1:0.0429753 2:0.247268 3:0.240113 4:0.40946 
0.00361719152441883 1:0.042947 2:0.247056 3:0.239151 4:0.409938 
0.00361719152441883 1:0.042508 2:0.245114 3:0.239634 4:0.406135 
0.00361719152441883 1:0.0421257 2:0.241758 3:0.237946 4:0.401766 
0.00361719152441883 1:0.0423758 2:0.243165 3:0.237212 4:0.404861 
0.00361719152441883 1:0.0423003 2:0.243912 3:0.237568 4:0.405851 
0.00361719152441883 1:0.0423664 2:0.24564 3:0.238973 4:0.40763 
0.00361719152441883 1:0.0425458 2:0.245425 3:0.239447 4:0.406841 
0.00361719152441883 1:0.0423003 2:0.243912 3:0.237568 4:0.405851 
0.00361719152441883 1:0.0424136 2:0.244024 3:0.237909 4:0.405748 
0.00361719152441883 1:0.0425977 2:0.24536 3:0.239078 4:0.407049 
0.00361719152441883 1:0.0425316 2:0.245425 3:0.239447 4:0.406841 
0.00361719152441883 1:0.0427959 2:0.246704 3:0.237534 4:0.410751 
0.00361719152441883 1:0.0420738 2:0.245449 3:0.241637 4:0.404968 
0.00361719152441883 1:0.0147452 2:0.235867 3:0.247308 4:0.383546 
0.00361719152441883 1:0.004871 2:0.246784 3:0.271077 4:0.382426 
0.00361719152441883 1:0.00334645 2:0.284069 3:0.27972 4:0.437297 
0.00361719152441883 1:0.00223726 2:0.326316 3:0.323897 4:0.467375 
0.00361719152441883 1:0.00227502 2:0.298246 3:0.312337 4:0.432594 
0.00361719152441883 1:0.00227502 2:0.298246 3:0.312337 4:0.432594 
0.00361719152441883 1:0.00138295 2:0.352097 3:0.357794 4:0.47845 
0.00361719152441883 1:0.00365325 2:0.259017 3:0.265106 4:0.40797 
0.00361719152441883 1:0.00365325 2:0.259017 3:0.265106 4:0.40797 
0.00361719152441883 1:0.0426496 2:0.25369 3:0.240086 4:0.420649 
0.00361719152441883 1:0.039086 2:0.246976 3:0.238186 4:0.410649 
0.00361719152441883 1:0.0106341 2:0.234963 3:0.252347 4:0.37779 
0.00361719152441883 1:0.00728291 2:0.237994 3:0.263714 4:0.373626 
0.00361719152441883 1:0.00943993 2:0.236243 3:0.255422 4:0.377438 
0.00361719152441883 1:0.00695723 2:0.241192 3:0.248489 4:0.391719 
0.00361719152441883 1:0.00712715 2:0.236111 3:0.248958 4:0.382581 
0.00361719152441883 1:0.00715075 2:0.243421 3:0.248958 4:0.395154 
0.00361719152441883 1:0.00716019 2:0.249977 3:0.253805 4:0.402258 
0.00361719152441883 1:0.0050834 2:0.261553 3:0.254299 4:0.421619 
0.00361719152441883 1:0.00354941 2:0.350227 3:0.304111 4:0.523374 
0.00361719152441883 1:0.0147074 2:0.266257 3:0.25961 4:0.424973 
0.00361719152441883 1:0.0439334 2:0.249774 3:0.24059 4:0.413395 
0.00361719152441883 1:0.0430933 2:0.250067 3:0.2399 4:0.414516 
0.00361719152441883 1:0.0419652 2:0.245605 3:0.242432 4:0.404546 
0.00361719152441883 1:0.0413422 2:0.240847 3:0.237432 4:0.400626 
0.00361719152441883 1:0.041918 2:0.244036 3:0.240391 4:0.4036 
0.00361719152441883 1:0.0422248 2:0.245229 3:0.240452 4:0.405619 
0.00361719152441883 1:0.0430178 2:0.250114 3:0.241384 4:0.413286 
0.00361719152441883 1:0.0419227 2:0.244779 3:0.240391 4:0.404891 
0.00361719152441883 1:0.0421965 2:0.242619 3:0.236679 4:0.404374 
0.00361719152441883 1:0.0426213 2:0.246038 3:0.239078 4:0.40823 
0.00361719152441883 1:0.0418425 2:0.242854 3:0.238539 4:0.403158 
0.00361719152441883 1:0.043013 2:0.249406 3:0.241068 4:0.412334 
0.00361719152441883 1:0.0429517 2:0.248931 3:0.240293 4:0.412194 
0.00361719152441883 1:0.0426354 2:0.246189 3:0.239751 4:0.407902 
0.00361719152441883 1:0.0426685 2:0.24522 3:0.238384 4:0.407415 
0.00361719152441883 1:0.0416773 2:0.242804 3:0.238561 4:0.403052 
0.00361719152441883 1:0.0427393 2:0.247524 3:0.241223 4:0.408932 
0.00361719152441883 1:0.0434992 2:0.249685 3:0.241792 4:0.412183 
0.00361719152441883 1:0.0414035 2:0.24142 3:0.238014 4:0.401118 
0.00361719152441883 1:0.0426826 2:0.244702 3:0.237541 4:0.407253 
0.00361719152441883 1:0.043065 2:0.246898 3:0.238468 4:0.410264 
0.00361719152441883 1:0.0422295 2:0.244758 3:0.23829 4:0.406694 
0.00361719152441883 1:0.0429328 2:0.247704 3:0.239151 4:0.411066 
0.00361719152441883 1:0.0428714 2:0.247863 3:0.239828 4:0.410746 
0.00361719152441883 1:0.0423853 2:0.245798 3:0.239669 4:0.407294 
0.00361719152441883 1:0.0429139 2:0.24576 3:0.237687 4:0.408969 
0.00361719152441883 1:0.0428998 2:0.246842 3:0.23818 4:0.410421 
0.00361719152441883 1:0.0422248 2:0.244677 3:0.239546 4:0.405451 
0.00361719152441883 1:0.0430555 2:0.248732 3:0.239585 4:0.412472 
0.00361719152441883 1:0.0423853 2:0.245719 3:0.239321 4:0.407462 
0.00361719152441883 1:0.0418189 2:0.242105 3:0.236849 4:0.403329 
0.00361719152441883 1:0.0417717 2:0.241925 3:0.237791 4:0.402193 
0.00361719152441883 1:0.0410165 2:0.239867 3:0.239275 4:0.39732 
0.00361719152441883 1:0.0413752 2:0.241823 3:0.238217 4:0.401644 
0.00361719152441883 1:0.0406719 2:0.237477 3:0.238708 4:0.393647 
0.00361719152441883 1:0.0413327 2:0.239374 3:0.236052 4:0.399255 
0.00361719152441883 1:0.0411817 2:0.239966 3:0.237438 4:0.399083 
0.00361719152441883 1:0.0418425 2:0.242195 3:0.237225 4:0.403158 
0.00361719152441883 1:0.0425363 2:0.246722 3:0.239105 4:0.409396 
0.00361719152441883 1:0.0417953 2:0.241925 3:0.237791 4:0.402193 
0.00361719152441883 1:0.0413327 2:0.239472 3:0.236447 4:0.399083 
0.00361719152441883 1:0.0419605 2:0.241694 3:0.2363 4:0.403092 
0.00361719152441883 1:0.0421162 2:0.242654 3:0.237037 4:0.404122 
0.00361719152441883 1:0.0417434 2:0.24099 3:0.237037 4:0.401219 
0.00361719152441883 1:0.0424372 2:0.244878 3:0.238602 4:0.406628 
0.00361719152441883 1:0.0420879 2:0.242395 3:0.237583 4:0.403194 
0.00361719152441883 1:0.0413752 2:0.240449 3:0.235469 4:0.401644 
0.00361719152441883 1:0.0419794 2:0.242428 3:0.237958 4:0.402924 
0.00361719152441883 1:0.0421304 2:0.242654 3:0.238667 4:0.402698 
0.00361719152441883 1:0.041564 2:0.240148 3:0.235311 4:0.401255 
0.00361719152441883 1:0.0414554 2:0.240153 3:0.235677 4:0.400945 
0.00361719152441883 1:0.041918 2:0.24395 3:0.240023 4:0.403771 
0.00361719152441883 1:0.0422154 2:0.243879 3:0.239191 4:0.404374 
0.00361719152441883 1:0.0421351 2:0.243376 3:0.238667 4:0.403955 
0.00361719152441883 1:0.0422578 2:0.242788 3:0.237394 4:0.404044 
0.00361719152441883 1:0.0420218 2:0.242047 3:0.23777 4:0.402423 
0.00361719152441883 1:0.041243 2:0.239667 3:0.237633 4:0.398393 
0.00361719152441883 1:0.0415074 2:0.24044 3:0.236844 4:0.400428 
0.00361719152441883 1:0.0415121 2:0.241211 3:0.236844 4:0.401774 
0.00361719152441883 1:0.0420077 2:0.243897 3:0.239617 4:0.404034 
0.00361719152441883 1:0.0419322 2:0.242727 3:0.239451 4:0.402142 
0.00361719152441883 1:0.0408088 2:0.239151 3:0.238273 4:0.396938 
0.00361719152441883 1:0.0417481 2:0.241082 3:0.235716 4:0.402534 
0.00361719152441883 1:0.0419322 2:0.241426 3:0.236852 4:0.402142 
0.00361719152441883 1:0.040974 2:0.238246 3:0.237444 4:0.396078 
0.00361719152441883 1:0.0415923 2:0.240913 3:0.237037 4:0.401084 
0.00361719152441883 1:0.0419935 2:0.241783 3:0.238325 4:0.401479 
0.00361719152441883 1:0.0414838 2:0.240249 3:0.236067 4:0.400772 
0.00361719152441883 1:0.0420454 2:0.240945 3:0.235945 4:0.402093 
0.00361719152441883 1:0.0420171 2:0.241317 3:0.23777 4:0.401151 
0.00361719152441883 1:0.0422154 2:0.242703 3:0.237037 4:0.404209 
0.00361719152441883 1:0.0417811 2:0.239766 3:0.236473 4:0.399574 
0.00361719152441883 1:0.0420832 2:0.241758 3:0.237946 4:0.401766 
0.00361719152441883 1:0.0415121 2:0.240536 3:0.235493 4:0.401774 
0.00361719152441883 1:0.0420643 2:0.241122 3:0.236674 4:0.401766 
0.00361719152441883 1:0.0423239 2:0.240817 3:0.236158 4:0.401683 
0.00361719152441883 1:0.0427346 2:0.243323 3:0.235709 4:0.406456 
0.00361719152441883 1:0.0426449 2:0.243127 3:0.236531 4:0.405392 
0.00361719152441883 1:0.0425694 2:0.24197 3:0.236016 4:0.403822 
0.00361719152441883 1:0.04239 2:0.241938 3:0.236339 4:0.403484 
0.00361719152441883 1:0.0426449 2:0.242535 3:0.235353 4:0.405392 
0.00361719152441883 1:0.0425363 2:0.242925 3:0.23738 4:0.404295 
0.00361719152441883 1:0.0422154 2:0.242077 3:0.235788 4:0.404209 
0.00361719152441883 1:0.0420879 2:0.241932 3:0.237037 4:0.402863 
0.00361719152441883 1:0.0424466 2:0.242354 3:0.236518 4:0.404053 
0.00361719152441883 1:0.0419369 2:0.241049 3:0.235013 4:0.403092 
0.00361719152441883 1:0.0422862 2:0.240471 3:0.23633 4:0.400929 
0.00361719152441883 1:0.0427959 2:0.244214 3:0.236706 4:0.407135 
0.00361719152441883 1:0.0424372 2:0.240889 3:0.23617 4:0.401799 
0.00361719152441883 1:0.0426496 2:0.242774 3:0.234857 4:0.406245 
0.00361719152441883 1:0.0420596 2:0.240219 3:0.235945 4:0.400826 
0.00361719152441883 1:0.0419746 2:0.240407 3:0.235384 4:0.401644 
0.00361719152441883 1:0.0421729 2:0.242363 3:0.237217 4:0.403458 
0.00361719152441883 1:0.0423711 2:0.242468 3:0.237212 4:0.403645 
0.00361719152441883 1:0.0418661 2:0.241156 3:0.235735 4:0.402647 
0.00361719152441883 1:0.0421918 2:0.242449 3:0.237575 4:0.403293 
0.00361719152441883 1:0.0420502 2:0.241582 3:0.235579 4:0.403528 
0.00361719152441883 1:0.042069 2:0.241758 3:0.23631 4:0.403194 
0.00361719152441883 1:0.0418378 2:0.240975 3:0.236664 4:0.401518 
0.00361719152441883 1:0.041177 2:0.238674 3:0.236838 4:0.39735 
0.00361719152441883 1:0.0417953 2:0.240608 3:0.235159 4:0.402193 
0.00361719152441883 1:0.0412336 2:0.238876 3:0.237633 4:0.397013 
0.00361719152441883 1:0.0407994 2:0.238119 3:0.23745 4:0.395851 
0.00361719152441883 1:0.0410779 2:0.238761 3:0.237642 4:0.396806 
0.00361719152441883 1:0.0420785 2:0.240219 3:0.235945 4:0.400826 
0.00361719152441883 1:0.0422862 2:0.243747 3:0.236859 4:0.406186 
0.00361719152441883 1:0.0417764 2:0.241266 3:0.23478 4:0.403675 
0.00361719152441883 1:0.0420313 2:0.242777 3:0.236121 4:0.405139 
0.00361719152441883 1:0.0418661 2:0.241066 3:0.23536 4:0.402816 
0.00361719152441883 1:0.0412383 2:0.240654 3:0.23486 4:0.402534 
0.00361719152441883 1:0.0416537 2:0.244909 3:0.236081 4:0.4089 
0.00361719152441883 1:0.0411534 2:0.243772 3:0.238444 4:0.40484 
0.00361719152441883 1:0.040115 2:0.23955 3:0.235954 4:0.399649 
0.00361719152441883 1:0.0396288 2:0.23888 3:0.235703 4:0.398696 
0.00361719152441883 1:0.040115 2:0.240199 3:0.237037 4:0.399839 
0.00361719152441883 1:0.0403179 2:0.242449 3:0.239191 4:0.401884 
0.00361719152441883 1:0.0399875 2:0.241406 3:0.236818 4:0.402136 
0.00361719152441883 1:0.0387839 2:0.239306 3:0.234726 4:0.400292 
0.00361719152441883 1:0.0407663 2:0.241213 3:0.236622 4:0.401969 
0.00361719152441883 1:0.0417481 2:0.244671 3:0.236658 4:0.407975 
0.00361719152441883 1:0.0414035 2:0.243574 3:0.235469 4:0.407105 
0.00361719152441883 1:0.0410731 2:0.240369 3:0.235827 4:0.40119 
0.00361719152441883 1:0.040856 2:0.239971 3:0.236419 4:0.399979 
0.00361719152441883 1:0.0423428 2:0.243618 3:0.236158 4:0.406576 
0.00361719152441883 1:0.0421398 2:0.24346 3:0.237399 4:0.405213 
0.00361719152441883 1:0.042154 2:0.242192 3:0.236496 4:0.403789 
0.00361719152441883 1:0.0419086 2:0.241247 3:0.236108 4:0.402478 
0.00361719152441883 1:0.0417953 2:0.240608 3:0.235159 4:0.402193 
0.00361719152441883 1:0.042069 2:0.24167 3:0.235945 4:0.403361 
0.00361719152441883 1:0.0421021 2:0.243206 3:0.23631 4:0.405724 
0.00361719152441883 1:0.0418802 2:0.24303 3:0.235914 4:0.405765 
0.00361719152441883 1:0.0421162 2:0.241932 3:0.235407 4:0.40429 
0.00361719152441883 1:0.0420502 2:0.241582 3:0.235579 4:0.403528 
0.00361719152441883 1:0.0422767 2:0.242247 3:0.236503 4:0.403879 
0.00361719152441883 1:0.0421965 2:0.242449 3:0.23596 4:0.404708 
0.00361719152441883 1:0.0417906 2:0.242765 3:0.23478 4:0.406298 
0.00361719152441883 1:0.0410779 2:0.242493 3:0.238253 4:0.402779 
0.00361719152441883 1:0.0400347 2:0.243155 3:0.240767 4:0.401742 
0.00361719152441883 1:0.0405303 2:0.238396 3:0.237672 4:0.396144 
0.00361719152441883 1:0.0427204 2:0.243753 3:0.234703 4:0.408096 
0.00361719152441883 1:0.0429045 2:0.247351 3:0.237528 4:0.411884 
0.00361719152441883 1:0.0428006 2:0.244797 3:0.236375 4:0.408446 
0.00361719152441883 1:0.0422626 2:0.240742 3:0.236146 4:0.401564 
0.00361719152441883 1:0.042659 2:0.242455 3:0.235013 4:0.40555 
0.00361719152441883 1:0.0426354 2:0.243642 3:0.235853 4:0.406887 
0.00361719152441883 1:0.0424136 2:0.243247 3:0.235989 4:0.406077 
0.00361719152441883 1:0.0425316 2:0.24216 3:0.237037 4:0.40326 
0.00361719152441883 1:0.0427959 2:0.244138 3:0.236375 4:0.407294 
0.00361719152441883 1:0.0428101 2:0.243051 3:0.234399 4:0.407135 
0.00361719152441883 1:0.0427251 2:0.243089 3:0.236203 4:0.405613 
0.00361719152441883 1:0.0428809 2:0.24221 3:0.236383 4:0.403919 
0.00361719152441883 1:0.0429658 2:0.24419 3:0.236391 4:0.407371 
0.00361719152441883 1:0.0424844 2:0.2426 3:0.236003 4:0.404935 
0.00361719152441883 1:0.042423 2:0.242022 3:0.236689 4:0.403324 
0.00361719152441883 1:0.0425127 2:0.24131 3:0.236349 4:0.402378 
0.00361719152441883 1:0.0429139 2:0.24252 3:0.236224 4:0.404601 
0.00361719152441883 1:0.0431216 2:0.24424 3:0.236407 4:0.407445 
0.00361719152441883 1:0.0431358 2:0.245425 3:0.23893 4:0.407294 
0.00361719152441883 1:0.0427346 2:0.243676 3:0.235868 4:0.406933 
0.00361719152441883 1:0.0426449 2:0.243642 3:0.237375 4:0.40555 
0.00361719152441883 1:0.0424891 2:0.243734 3:0.236518 4:0.406463 
0.00361719152441883 1:0.0425363 2:0.24216 3:0.235493 4:0.404614 
0.00361719152441883 1:0.0425788 2:0.24053 3:0.235674 4:0.401605 
0.00361719152441883 1:0.0427912 2:0.2434 3:0.236042 4:0.406298 
0.00361719152441883 1:0.0426402 2:0.242648 3:0.236016 4:0.405006 
0.00361719152441883 1:0.042541 2:0.243528 3:0.237037 4:0.405647 
0.00361719152441883 1:0.0423617 2:0.243165 3:0.235638 4:0.406243 
0.00361719152441883 1:0.0421351 2:0.245623 3:0.237399 4:0.408984 
0.00361719152441883 1:0.0414932 2:0.241117 3:0.234713 4:0.403474 
0.00361719152441883 1:0.041564 2:0.243206 3:0.235311 4:0.406602 
0.00361719152441883 1:0.0412383 2:0.242042 3:0.237633 4:0.402534 
0.00361719152441883 1:0.0407994 2:0.245439 3:0.2389 4:0.407343 
0.00361719152441883 1:0.0401527 2:0.24214 3:0.235954 4:0.404173 
0.00361719152441883 1:0.0406578 2:0.24174 3:0.237246 4:0.402345 
0.00361719152441883 1:0.0393598 2:0.242358 3:0.237716 4:0.403012 
0.00361719152441883 1:0.0235951 2:0.240275 3:0.237547 4:0.399527 
0.00361719152441883 1:0.0405775 2:0.250284 3:0.241893 4:0.413132 
0.00361719152441883 1:0.0391379 2:0.245455 3:0.237494 4:0.408607 
0.00361719152441883 1:0.0393362 2:0.241237 3:0.23681 4:0.401847 
0.00361719152441883 1:0.0377125 2:0.240242 3:0.235606 4:0.401161 
0.00361719152441883 1:0.0381751 2:0.242819 3:0.23633 4:0.405031 
0.00361719152441883 1:0.0400489 2:0.242036 3:0.237471 4:0.402665 
0.00361719152441883 1:0.0406955 2:0.250627 3:0.241648 4:0.413942 
0.00361719152441883 1:0.037755 2:0.251366 3:0.240638 4:0.41612 
0.00361719152441883 1:0.0340451 2:0.248581 3:0.240775 4:0.411161 
0.00361719152441883 1:0.0234346 2:0.247229 3:0.238943 4:0.410421 
0.00361719152441883 1:0.0233544 2:0.246389 3:0.242694 4:0.405677 
0.00361719152441883 1:0.0232553 2:0.239912 3:0.242599 4:0.394534 
0.00361719152441883 1:0.0234629 2:0.240582 3:0.243315 4:0.39508 
0.00361719152441883 1:0.0235668 2:0.243943 3:0.240705 4:0.403165 
0.00361719152441883 1:0.0367119 2:0.249985 3:0.244945 4:0.409935 
0.00361719152441883 1:0.0364664 2:0.249103 3:0.243202 4:0.409935 
0.00361719152441883 1:0.0332616 2:0.247941 3:0.24461 4:0.406694 
0.00361719152441883 1:0.0321005 2:0.248049 3:0.24283 4:0.408433 
0.00361719152441883 1:0.0383403 2:0.250238 3:0.240107 4:0.414629 
0.00361719152441883 1:0.0387367 2:0.250716 3:0.240311 4:0.415281 
0.00361719152441883 1:0.0380429 2:0.251747 3:0.24037 4:0.417018 
0.00361719152441883 1:0.0350835 2:0.247588 3:0.240775 4:0.409435 
0.00361719152441883 1:0.0235951 2:0.245129 3:0.238831 4:0.406864 
0.00361719152441883 1:0.0236045 2:0.247394 3:0.239844 4:0.409916 
0.00361719152441883 1:0.0373255 2:0.252909 3:0.243087 4:0.416627 
0.00361719152441883 1:0.0388406 2:0.251925 3:0.241686 4:0.416162 
0.00361719152441883 1:0.0367119 2:0.252245 3:0.241948 4:0.416484 
0.00361719152441883 1:0.0234063 2:0.248593 3:0.240082 4:0.411792 
0.00361719152441883 1:0.0232694 2:0.246006 3:0.238493 4:0.408688 
0.00361719152441883 1:0.0234771 2:0.24996 3:0.239191 4:0.414957 
0.00361719152441883 1:0.0235054 2:0.254652 3:0.241305 4:0.421232 
0.00361719152441883 1:0.0235998 2:0.254129 3:0.244759 4:0.417262 
0.00361719152441883 1:0.0232175 2:0.253352 3:0.242372 4:0.418029 
0.00361719152441883 1:0.0231042 2:0.249258 3:0.242261 4:0.411028 
0.00361719152441883 1:0.0231231 2:0.244779 3:0.238561 4:0.406491 
0.00361719152441883 1:0.0233544 2:0.246011 3:0.24359 4:0.404243 
0.00361719152441883 1:0.0230004 2:0.245425 3:0.24461 4:0.402345 
0.00361719152441883 1:0.0233402 2:0.248161 3:0.243034 4:0.40845 
0.00361719152441883 1:0.0232411 2:0.244038 3:0.24295 4:0.40138 
0.00361719152441883 1:0.0232411 2:0.242999 3:0.240871 4:0.40138 
0.00361719152441883 1:0.0234629 2:0.244098 3:0.241928 4:0.402371 
0.00361719152441883 1:0.0234063 2:0.249351 3:0.24345 4:0.410146 
0.00361719152441883 1:0.0234252 2:0.253901 3:0.243991 4:0.417546 
0.00361719152441883 1:0.0235243 2:0.251568 3:0.241828 4:0.415417 
0.00361719152441883 1:0.0234441 2:0.247964 3:0.23978 4:0.410964 
0.00361719152441883 1:0.0233497 2:0.246389 3:0.240148 4:0.407902 
0.00361719152441883 1:0.0235526 2:0.248454 3:0.2399 4:0.41171 
0.00361719152441883 1:0.0235101 2:0.252629 3:0.239433 4:0.419386 
0.00361719152441883 1:0.0232364 2:0.253465 3:0.240289 4:0.420077 
0.00361719152441883 1:0.0230193 2:0.24933 3:0.242387 4:0.411043 
0.00361719152441883 1:0.0231089 2:0.248294 3:0.237954 4:0.413152 
0.00361719152441883 1:0.0231231 2:0.248682 3:0.237037 4:0.41464 
0.00361719152441883 1:0.0231561 2:0.250385 3:0.239439 4:0.415477 
0.00361719152441883 1:0.0227644 2:0.25225 3:0.246269 4:0.412689 
0.00361719152441883 1:0.021962 2:0.252182 3:0.247511 4:0.411484 
0.00361719152441883 1:0.0156089 2:0.243665 3:0.242906 4:0.400772 
0.00361719152441883 1:0.01559 2:0.241347 3:0.243382 4:0.396347 
0.00361719152441883 1:0.0155664 2:0.242551 3:0.241828 4:0.399773 
0.00361719152441883 1:0.0154248 2:0.24291 3:0.240823 4:0.401268 
0.00361719152441883 1:0.0146838 2:0.241 3:0.244466 4:0.394816 
0.00361719152441883 1:0.0150708 2:0.24188 3:0.246936 4:0.394224 
0.00361719152441883 1:0.014646 2:0.236267 3:0.246066 4:0.38528 
0.00361719152441883 1:0.0107002 2:0.231729 3:0.236481 4:0.385533 
0.00361719152441883 1:0.0147074 2:0.238522 3:0.247027 4:0.388358 
0.00361719152441883 1:0.0146744 2:0.241538 3:0.247708 4:0.392978 
0.00361719152441883 1:0.0106058 2:0.240369 3:0.243087 4:0.394906 
0.00361719152441883 1:0.0106482 2:0.237427 3:0.239385 4:0.392978 
0.00361719152441883 1:0.0106246 2:0.236186 3:0.245421 4:0.385684 
0.00361719152441883 1:0.0105538 2:0.236688 3:0.243833 4:0.387897 
0.00361719152441883 1:0.0106954 2:0.239484 3:0.237037 4:0.39859 
0.00361719152441883 1:0.0101951 2:0.233813 3:0.250392 4:0.377438 
0.00361719152441883 1:0.0073537 2:0.235622 3:0.247204 4:0.38321 
0.00361719152441883 1:0.00725931 2:0.235867 3:0.251709 4:0.379868 
0.00361719152441883 1:0.00730651 2:0.230334 3:0.24177 4:0.378628 
0.00361719152441883 1:0.00699499 2:0.232003 3:0.238076 4:0.384653 
0.00361719152441883 1:0.00662211 2:0.229572 3:0.248883 4:0.371397 
0.00361719152441883 1:0.00517308 2:0.234656 3:0.246154 4:0.382426 
0.00361719152441883 1:0.00515892 2:0.238029 3:0.252145 4:0.38321 
0.00361719152441883 1:0.00518724 2:0.235867 3:0.250452 4:0.380915 
0.00361719152441883 1:0.00690531 2:0.238703 3:0.250909 4:0.385399 
0.00361719152441883 1:0.00634363 2:0.2376 3:0.246819 4:0.386945 
0.00361719152441883 1:0.00740562 2:0.238893 3:0.251052 4:0.385606 
0.00361719152441883 1:0.00752834 2:0.238186 3:0.25052 4:0.384838 
0.00361719152441883 1:0.0101054 2:0.234712 3:0.250079 4:0.379242 
0.00361719152441883 1:0.0103462 2:0.231792 3:0.237704 4:0.3846 
0.00361719152441883 1:0.0104642 2:0.234334 3:0.240886 4:0.386318 
0.00361719152441883 1:0.0105161 2:0.230697 3:0.240176 4:0.380601 
0.00361719152441883 1:0.013636 2:0.240567 3:0.245077 4:0.393546 
0.00361719152441883 1:0.0127392 2:0.241932 3:0.246819 4:0.394415 
0.00361719152441883 1:0.013636 2:0.240303 3:0.244037 4:0.393978 
0.00361719152441883 1:0.0148443 2:0.242413 3:0.241384 4:0.399919 
0.00361719152441883 1:0.0147924 2:0.241715 3:0.242906 4:0.397395 
0.00361719152441883 1:0.0150944 2:0.235622 3:0.238886 4:0.390265 
0.00361719152441883 1:0.0153682 2:0.241694 3:0.239617 4:0.400201 
0.00361719152441883 1:0.014967 2:0.243317 3:0.240839 4:0.401962 
0.00361719152441883 1:0.0153729 2:0.243608 3:0.240464 4:0.402792 
0.00361719152441883 1:0.0153824 2:0.240193 3:0.240464 4:0.396858 
0.00361719152441883 1:0.0153965 2:0.242711 3:0.236193 4:0.404962 
0.00361719152441883 1:0.0155523 2:0.243772 3:0.233017 4:0.409619 
0.00361719152441883 1:0.0155051 2:0.244639 3:0.233369 4:0.410828 
0.00361719152441883 1:0.0153399 2:0.243206 3:0.234879 4:0.406982 
0.00361719152441883 1:0.0155806 2:0.246088 3:0.236244 4:0.410816 
0.00361719152441883 1:0.0154012 2:0.241437 3:0.23033 4:0.407902 
0.00361719152441883 1:0.0153116 2:0.240853 3:0.236164 4:0.401742 
0.00361719152441883 1:0.0153776 2:0.244004 3:0.238313 4:0.405359 
0.00361719152441883 1:0.0153399 2:0.243608 3:0.236609 4:0.406163 
0.00361719152441883 1:0.0151794 2:0.241105 3:0.233901 4:0.404166 
0.00361719152441883 1:0.0155712 2:0.241154 3:0.235445 4:0.402896 
0.00361719152441883 1:0.0151133 2:0.238406 3:0.234307 4:0.399083 
0.00361719152441883 1:0.0142543 2:0.238478 3:0.239105 4:0.395048 
0.00361719152441883 1:0.0151322 2:0.231153 3:0.238402 4:0.382894 
0.00361719152441883 1:0.0153021 2:0.232402 3:0.24095 4:0.382909 
0.00361719152441883 1:0.0154107 2:0.23788 3:0.240823 4:0.39253 
0.00361719152441883 1:0.0154956 2:0.234893 3:0.237037 4:0.39058 
0.00361719152441883 1:0.0151936 2:0.234207 3:0.238822 4:0.387856 
